~o
<STREAMINFO> 1 39
<VECSIZE> 39<NULLD><MFCC_D_A_0><DIAGC>
~h "f0"
<BEGINHMM>
<NUMSTATES> 5
<STATE> 2
<NUMMIXES> 16
<MIXTURE> 1 4.866857e-02
<MEAN> 39
 -8.699780e+00 1.834032e+00 3.192303e-02 6.775715e-01 -3.769571e-01 -2.924906e-01 -2.796163e-01 3.240960e-02 1.457034e-01 -3.803021e-01 1.841823e-01 -3.522412e-01 6.392713e+01 -7.919032e-02 -1.795981e-02 8.621677e-03 8.446993e-03 3.204095e-02 3.548923e-02 2.980792e-02 3.022016e-02 3.483073e-02 2.395996e-02 1.726341e-02 1.748322e-02 -3.213428e-01 1.137973e-01 -2.388800e-02 5.127514e-03 -1.649063e-02 -1.697619e-02 -2.455309e-02 -9.355932e-03 -1.139988e-02 -9.447926e-03 -6.032172e-03 -5.573588e-03 -1.957870e-03 1.074122e-01
<VARIANCE> 39
 4.273709e+00 1.718430e+00 7.932524e-01 5.634660e-01 3.304304e-01 2.674460e-01 2.208880e-01 1.738427e-01 1.597185e-01 1.331756e-01 1.492349e-01 1.024450e-01 2.746886e+01 1.064286e-01 5.684675e-02 3.090996e-02 2.568113e-02 2.023971e-02 1.851678e-02 1.490815e-02 1.328125e-02 1.269145e-02 1.140766e-02 9.769065e-03 9.055277e-03 7.428703e-01 3.089789e-02 1.187067e-02 7.017811e-03 5.125110e-03 4.125479e-03 3.935598e-03 2.909795e-03 2.669181e-03 2.369660e-03 2.128829e-03 1.993937e-03 1.722377e-03 1.424804e-01
<GCONST> -5.233638e+01
<MIXTURE> 2 7.017605e-02
<MEAN> 39
 -6.059647e-01 6.889315e-01 1.728011e-01 -5.595794e-01 -2.040741e+00 -1.744723e+00 -6.945081e-01 -4.787236e-01 -3.444341e-01 -8.657367e-02 -4.860576e-01 -2.401820e-01 6.675399e+01 -5.476804e-01 7.972965e-01 6.597123e-03 2.632531e-01 2.940911e-01 1.080082e-01 3.659515e-02 -4.424016e-02 8.670936e-02 -1.636717e-01 1.057808e-01 -1.965263e-02 -2.573663e+00 -3.326505e-01 -2.507521e-02 2.471936e-02 1.890019e-02 9.214089e-02 9.188413e-02 -1.535911e-02 2.080105e-02 -1.898388e-02 -1.927245e-03 2.016127e-02 -1.516646e-02 5.895618e-02
<VARIANCE> 39
 3.437001e+00 2.247866e+00 1.612705e+00 7.663016e-01 7.546576e-01 5.360946e-01 4.738679e-01 3.672094e-01 2.500270e-01 4.117254e-01 2.927190e-01 2.290906e-01 3.091621e+01 5.337245e-01 2.174982e-01 1.148803e-01 7.339637e-02 5.526804e-02 5.580734e-02 4.142703e-02 4.050362e-02 2.231553e-02 2.711726e-02 2.623070e-02 1.963670e-02 3.264344e+00 5.312332e-02 4.435180e-02 1.301525e-02 1.122365e-02 9.991526e-03 7.959679e-03 7.148113e-03 6.081793e-03 3.890820e-03 5.771323e-03 4.633624e-03 3.580931e-03 4.457346e-01
<GCONST> -2.004693e+01
<MIXTURE> 3 7.681318e-02
<MEAN> 39
 -5.901056e-01 -1.808998e+00 2.041557e-01 -1.315383e+00 -2.279772e+00 -1.430205e+00 -1.000829e+00 -6.353669e-02 -8.349011e-01 1.897482e-01 -6.824429e-01 -2.822818e-01 7.468028e+01 1.564240e-01 5.203655e-01 5.742266e-02 1.801748e-01 5.456532e-02 -8.581832e-02 7.682331e-02 -1.901919e-01 9.918845e-02 -1.564748e-02 1.741950e-02 4.324182e-02 -1.942506e+00 -7.727744e-02 2.026450e-01 -3.101939e-02 5.970402e-02 7.393138e-02 1.238216e-02 2.254749e-02 -3.583740e-02 3.367653e-02 -2.874389e-02 1.157952e-02 -1.068858e-02 -6.479260e-01
<VARIANCE> 39
 2.059010e+00 1.781632e+00 2.534907e+00 8.657795e-01 1.002833e+00 7.047635e-01 6.078032e-01 5.249687e-01 3.443381e-01 4.264499e-01 2.674536e-01 2.802789e-01 1.079559e+01 1.697653e-01 1.542754e-01 8.970381e-02 5.836118e-02 5.175885e-02 4.774818e-02 4.449529e-02 4.315634e-02 2.261038e-02 3.584597e-02 2.349347e-02 2.077501e-02 1.641094e+00 4.189984e-02 2.586911e-02 1.359553e-02 1.059272e-02 1.018373e-02 8.572570e-03 7.535178e-03 7.161982e-03 4.642494e-03 6.163001e-03 4.371207e-03 3.594981e-03 2.711286e-01
<GCONST> -2.293080e+01
<MIXTURE> 4 4.430877e-02
<MEAN> 39
 -5.803813e+00 -3.177164e-01 -8.094113e-01 -3.701503e-02 -8.667152e-01 -7.507150e-01 -6.860443e-01 1.239408e-01 3.827041e-01 -1.387620e-01 3.087914e-01 -3.298595e-01 6.851962e+01 -5.802838e-01 -3.261089e-01 -1.961574e-01 -1.202901e-01 -1.702912e-01 -1.061398e-01 1.393874e-02 1.134018e-01 1.071567e-01 4.780734e-02 8.447590e-02 2.019330e-03 2.879671e+00 2.732127e-01 1.659832e-01 1.434983e-01 1.610138e-02 1.209061e-02 -2.076097e-03 2.644092e-02 -5.408925e-02 -6.967804e-02 -8.191831e-03 -6.060869e-02 2.444115e-03 -8.716238e-01
<VARIANCE> 39
 5.059671e+00 2.363308e+00 1.257770e+00 8.454909e-01 5.369372e-01 4.130633e-01 3.998878e-01 2.872984e-01 2.358289e-01 2.145190e-01 1.523662e-01 1.276667e-01 2.150313e+01 8.055047e-01 2.530036e-01 1.221380e-01 6.775855e-02 6.857295e-02 4.845588e-02 4.030528e-02 3.410133e-02 2.548246e-02 2.058833e-02 2.012230e-02 1.323210e-02 5.015064e+00 1.365435e-01 4.470812e-02 2.134528e-02 1.649917e-02 1.326722e-02 1.058025e-02 6.945633e-03 6.688607e-03 5.146132e-03 4.827127e-03 4.141269e-03 2.872055e-03 6.407030e-01
<GCONST> -2.044443e+01
<MIXTURE> 5 8.106361e-02
<MEAN> 39
 -2.787874e-01 -1.762971e+00 -2.930971e-01 -1.035941e+00 -2.238629e+00 -1.625781e+00 -1.148744e+00 -7.750376e-02 -5.961362e-01 1.785705e-01 -6.254940e-01 -3.625820e-01 7.474167e+01 2.853577e-01 -5.363387e-01 -3.701417e-02 -2.209120e-01 -1.142392e-01 2.643077e-02 -3.574365e-02 1.378500e-01 -1.025975e-01 6.997069e-02 -8.383467e-02 -4.992978e-03 1.744718e+00 -3.504776e-01 1.724127e-01 1.637252e-02 6.830387e-02 1.131123e-01 8.441513e-02 5.697179e-02 -6.191960e-04 3.829305e-02 -3.193049e-02 3.975435e-02 -4.773105e-03 -6.948848e-01
<VARIANCE> 39
 2.777527e+00 1.876681e+00 2.546707e+00 1.096120e+00 9.177163e-01 7.117308e-01 5.829251e-01 4.472554e-01 3.517173e-01 3.502648e-01 2.604808e-01 2.553214e-01 1.154446e+01 4.336832e-01 1.819317e-01 1.150466e-01 7.917731e-02 7.309121e-02 6.292416e-02 4.437857e-02 4.425764e-02 2.578224e-02 3.485786e-02 2.626940e-02 1.948364e-02 2.407403e+00 8.005519e-02 3.531541e-02 1.854336e-02 1.549059e-02 1.411519e-02 1.160995e-02 8.460505e-03 7.710607e-03 6.419717e-03 6.359737e-03 5.736548e-03 3.777399e-03 4.013179e-01
<GCONST> -1.647613e+01
<MIXTURE> 6 5.700800e-02
<MEAN> 39
 -8.020914e-01 -2.933940e+00 -6.721687e-01 -1.392946e+00 -1.795712e+00 -1.145421e+00 -8.206467e-01 5.439665e-01 -8.507890e-01 -7.819125e-03 -8.026140e-01 -4.632662e-01 7.866152e+01 4.036783e-02 5.433703e-02 4.136123e-02 -8.052493e-03 -6.317542e-03 5.172713e-03 -2.277874e-02 -2.764662e-02 4.860708e-03 1.107788e-02 6.302329e-03 2.009630e-03 -1.803105e-01 1.907404e-02 3.849163e-02 6.713971e-03 9.674431e-03 -6.111430e-03 -1.173063e-02 -5.640021e-03 -1.352666e-02 9.742596e-03 -1.072446e-03 1.220954e-03 5.531292e-03 -1.323825e-01
<VARIANCE> 39
 1.302550e+00 1.399298e+00 1.489816e+00 7.085900e-01 1.068295e+00 7.283079e-01 6.141467e-01 3.097867e-01 2.443373e-01 2.424134e-01 1.655162e-01 2.058921e-01 5.250032e+00 2.637878e-02 2.738414e-02 2.392873e-02 1.624687e-02 1.745389e-02 1.322459e-02 1.468400e-02 1.253872e-02 9.134697e-03 8.495857e-03 6.007912e-03 5.565669e-03 1.348256e-01 4.763518e-03 4.108640e-03 2.999136e-03 2.650550e-03 2.901410e-03 2.168588e-03 2.507535e-03 1.915539e-03 1.609817e-03 1.328240e-03 1.056852e-03 1.001307e-03 2.879910e-02
<GCONST> -6.512677e+01
<MIXTURE> 7 5.937242e-02
<MEAN> 39
 -2.860379e+00 2.077874e+00 6.774692e-01 4.764627e-01 1.056447e-01 -2.340612e-01 -3.255501e-01 -4.152409e-01 -1.996665e-01 -1.561063e-01 -8.607773e-02 -1.859159e-01 5.071309e+01 -2.260114e-01 -2.509975e-01 -1.004482e-01 2.421141e-02 6.535923e-03 1.179948e-02 -1.109957e-03 6.541254e-02 7.054715e-02 5.823802e-03 4.175752e-02 -1.583017e-03 6.190900e-01 -1.073095e-01 -1.662570e-01 -1.029516e-01 -5.653059e-02 -1.112119e-01 -6.550012e-02 -2.125704e-02 3.921866e-02 2.455897e-02 7.865483e-03 9.425052e-03 -1.218957e-02 1.495342e+00
<VARIANCE> 39
 9.048857e-01 3.191881e-01 2.244366e-01 1.881236e-01 1.889101e-01 1.804500e-01 1.555060e-01 1.442116e-01 1.221704e-01 1.073333e-01 1.000287e-01 8.594047e-02 4.369948e+00 4.858370e-01 2.015491e-01 9.294742e-02 5.129063e-02 5.965723e-02 5.654351e-02 2.884389e-02 2.811638e-02 1.979014e-02 1.788210e-02 1.592244e-02 1.205695e-02 6.546591e+00 7.487710e-02 2.623376e-02 1.353989e-02 9.516411e-03 8.379623e-03 6.939185e-03 5.189316e-03 4.364914e-03 3.513526e-03 3.394582e-03 2.771616e-03 2.415368e-03 5.945181e-01
<GCONST> -4.203435e+01
<MIXTURE> 8 4.779472e-02
<MEAN> 39
 -4.627907e+00 7.180447e-01 4.972703e-02 5.498302e-01 -1.878209e-01 -2.237663e-01 -2.987677e-01 -9.783749e-03 -1.501321e-02 -1.309895e-01 -2.848113e-02 -2.879353e-01 5.917117e+01 3.788520e-01 -1.271648e-01 -1.207015e-01 -9.036392e-02 -9.877285e-02 -1.708643e-01 -8.463401e-02 -7.167456e-03 2.886618e-02 3.147418e-03 -7.481977e-03 2.444740e-02 5.373077e-01 4.049343e-02 -8.556706e-02 -2.884946e-02 -9.204582e-02 -9.951466e-02 -3.470348e-02 -1.715706e-02 1.194724e-03 -1.856841e-02 1.921986e-02 -1.478839e-02 -1.553017e-02 1.059362e+00
<VARIANCE> 39
 4.425951e+00 2.087987e+00 8.296021e-01 6.946673e-01 4.336804e-01 6.162724e-01 4.004582e-01 2.814029e-01 1.857404e-01 1.912955e-01 1.743067e-01 1.405335e-01 3.517365e+01 1.117806e+00 4.482206e-01 1.393441e-01 9.290502e-02 8.857736e-02 9.484753e-02 4.478863e-02 5.142809e-02 3.316819e-02 2.585903e-02 2.859244e-02 1.858416e-02 1.306816e+01 1.036009e-01 4.075266e-02 1.505415e-02 1.599822e-02 1.091597e-02 9.612809e-03 6.505471e-03 5.253043e-03 4.249294e-03 4.301731e-03 3.644666e-03 2.693968e-03 5.898077e-01
<GCONST> -1.777512e+01
<MIXTURE> 9 7.701392e-02
<MEAN> 39
 8.652816e-01 6.613746e-01 -2.251905e-01 -7.737221e-01 -1.617712e+00 -1.732617e+00 -4.921537e-01 -1.291778e+00 -3.617385e-01 3.527316e-01 -9.699649e-01 -2.422897e-01 6.645850e+01 -2.505385e-03 1.313376e-01 -2.288578e-02 -9.703781e-03 1.275021e-02 -1.054195e-03 1.422759e-02 -4.513166e-03 2.781363e-02 -9.058217e-03 1.115997e-02 -1.851717e-02 -2.872783e-01 -1.305162e-01 -9.680178e-02 1.923405e-02 -1.228508e-02 -1.003369e-02 3.104948e-02 -3.448233e-02 8.287811e-02 -1.779874e-02 -3.431647e-02 2.454690e-02 2.412595e-04 3.495368e-01
<VARIANCE> 39
 1.310403e+00 1.705318e+00 9.182227e-01 6.065286e-01 5.273256e-01 5.182566e-01 6.508254e-01 4.505709e-01 2.347185e-01 2.901666e-01 3.680974e-01 3.956113e-01 9.878167e+00 1.120981e-01 2.450086e-01 5.324325e-02 4.242602e-02 3.552381e-02 3.503405e-02 4.416056e-02 6.206369e-02 1.879137e-02 2.629835e-02 2.394344e-02 1.696194e-02 2.149839e+00 2.581850e-02 2.221939e-02 9.681318e-03 8.299453e-03 8.021750e-03 6.895625e-03 7.166946e-03 6.122137e-03 3.306146e-03 4.203083e-03 4.377301e-03 3.738423e-03 1.893217e-01
<GCONST> -3.048113e+01
<MIXTURE> 10 9.103899e-02
<MEAN> 39
 -7.255358e-01 -3.362399e+00 -1.170774e+00 -1.345950e+00 -1.684333e+00 -9.972236e-01 -1.010216e+00 5.699917e-01 -8.195424e-01 -1.630964e-01 -8.525386e-01 -5.120938e-01 7.875752e+01 -6.434169e-02 -6.416052e-02 5.528595e-02 -4.514308e-02 -1.945466e-02 1.880885e-02 2.591942e-02 3.291312e-02 -4.719273e-02 -4.992590e-03 -3.797221e-03 7.126303e-03 2.177114e-01 7.232169e-04 1.639362e-01 5.732004e-02 3.969788e-02 -2.635102e-03 -2.256532e-02 5.803119e-03 -6.701393e-02 2.362840e-02 1.266134e-02 1.644872e-02 1.231383e-02 -5.276470e-01
<VARIANCE> 39
 1.529292e+00 1.199734e+00 1.277133e+00 6.537916e-01 1.047108e+00 6.344537e-01 6.411818e-01 3.161127e-01 3.196109e-01 2.566418e-01 2.021163e-01 2.356956e-01 5.524452e+00 1.109137e-01 1.107367e-01 7.859470e-02 4.625667e-02 5.917694e-02 4.001079e-02 4.120987e-02 3.449994e-02 2.593159e-02 2.291517e-02 1.521383e-02 1.650520e-02 9.211891e-01 2.070494e-02 1.297085e-02 7.490140e-03 7.633080e-03 7.596240e-03 6.341069e-03 7.212695e-03 4.868666e-03 3.969779e-03 3.580509e-03 2.973348e-03 2.837890e-03 1.402904e-01
<GCONST> -3.515287e+01
<MIXTURE> 11 7.705857e-02
<MEAN> 39
 -3.195176e+00 2.453506e+00 4.405446e-01 4.869999e-02 -1.037294e+00 -1.152613e+00 -7.997944e-01 -5.575199e-01 -3.573999e-01 -4.749368e-01 -1.984870e-01 -3.587411e-01 6.186232e+01 -1.061191e+00 2.042919e-01 9.748538e-02 2.559745e-01 3.282672e-01 2.412412e-01 9.852899e-03 2.194341e-02 1.766976e-02 -6.187653e-02 9.924395e-02 -1.924901e-02 -1.240451e+00 2.366595e-02 -2.907867e-01 -4.109481e-02 -4.735894e-02 -5.419902e-02 -2.646050e-03 1.590683e-02 3.691929e-02 3.888649e-03 5.298255e-02 -1.711521e-02 4.798185e-03 7.498691e-01
<VARIANCE> 39
 8.147753e+00 1.575244e+00 8.911449e-01 6.821412e-01 4.784709e-01 3.806729e-01 2.847403e-01 2.907176e-01 1.937726e-01 2.448086e-01 1.973443e-01 1.304949e-01 4.284286e+01 4.874191e-01 2.589503e-01 9.096209e-02 5.980272e-02 5.333845e-02 4.165491e-02 3.343116e-02 3.333610e-02 1.968735e-02 2.561576e-02 2.257623e-02 1.709616e-02 2.952330e+00 8.909534e-02 3.227980e-02 1.482522e-02 1.132323e-02 9.441942e-03 7.345973e-03 5.892202e-03 5.786541e-03 4.108913e-03 3.991644e-03 3.983404e-03 2.832664e-03 6.104668e-01
<GCONST> -2.528514e+01
<MIXTURE> 12 7.520834e-02
<MEAN> 39
 -9.999794e-01 -4.696661e-01 9.586631e-01 -2.030472e+00 -2.434067e+00 -1.109076e+00 -1.300589e+00 -5.616865e-01 -8.298022e-01 4.726249e-01 -6.096275e-01 -3.996594e-01 7.384840e+01 2.618582e-02 4.654796e-02 2.834297e-02 -1.029007e-03 -2.742575e-03 1.500350e-02 -6.703398e-03 -1.781833e-02 -5.579598e-03 1.415497e-02 -7.701872e-03 1.570612e-02 -2.099050e-01 8.137348e-03 1.140476e-02 -3.386763e-02 6.050926e-02 1.230508e-02 -2.355655e-02 1.839334e-02 8.443498e-03 1.384312e-02 -2.206789e-02 7.364054e-03 1.745490e-03 -1.551493e-01
<VARIANCE> 39
 3.489119e+00 1.597878e+00 4.110117e+00 9.978018e-01 6.154788e-01 8.114955e-01 4.358570e-01 3.411062e-01 2.860149e-01 3.639954e-01 3.680879e-01 2.872430e-01 1.050418e+01 5.264946e-02 6.641031e-02 3.759489e-02 4.107024e-02 2.344722e-02 2.385669e-02 2.222752e-02 2.005106e-02 1.464536e-02 1.625131e-02 1.304250e-02 1.071393e-02 4.771087e-01 1.335184e-02 1.098182e-02 6.785103e-03 5.768390e-03 5.066237e-03 4.468034e-03 3.891088e-03 3.195612e-03 2.767446e-03 3.250620e-03 2.814488e-03 2.010855e-03 9.152137e-02
<GCONST> -4.230289e+01
<MIXTURE> 13 5.638531e-02
<MEAN> 39
 -1.190433e+00 4.951472e-01 7.956916e-03 -4.999200e-01 -1.897115e+00 -1.679880e+00 -1.050490e+00 -5.793014e-01 -3.798302e-01 -2.540037e-01 -3.778229e-01 -4.484318e-01 6.927448e+01 1.455955e+00 -4.458936e-01 -4.715686e-02 -3.391817e-01 -3.890473e-01 -2.402838e-01 -1.825278e-01 -5.771408e-02 -1.835977e-01 1.166148e-01 -1.706490e-01 -3.204757e-03 2.082813e+00 -2.923240e-01 -1.013187e-01 -2.013140e-02 1.114597e-03 7.180204e-02 1.077380e-01 4.898888e-02 6.485191e-02 1.806118e-02 3.312863e-02 2.211331e-02 1.057290e-02 -2.964913e-02
<VARIANCE> 39
 4.627270e+00 2.079442e+00 1.827692e+00 7.846922e-01 7.063539e-01 5.078918e-01 3.810103e-01 3.059984e-01 2.509046e-01 2.886589e-01 2.421435e-01 1.575412e-01 2.261782e+01 6.058646e-01 2.647543e-01 1.502161e-01 1.054048e-01 6.738164e-02 8.055792e-02 5.068063e-02 4.291158e-02 3.562106e-02 3.418973e-02 2.953294e-02 2.331406e-02 3.101193e+00 9.612939e-02 3.150992e-02 1.498293e-02 1.038835e-02 1.107752e-02 8.267310e-03 5.892480e-03 6.247621e-03 4.952419e-03 4.499748e-03 5.063131e-03 2.694081e-03 4.646783e-01
<GCONST> -1.858344e+01
<MIXTURE> 14 5.482217e-02
<MEAN> 39
 -8.586639e+00 2.117060e+00 3.441410e-01 8.150802e-01 -3.970924e-01 -3.488382e-01 -4.961295e-01 -1.829298e-01 -7.899738e-02 -5.951234e-01 8.809243e-02 -4.515777e-01 6.484254e+01 -3.273627e-01 -2.102818e-01 -8.223002e-02 -7.707885e-03 3.828220e-02 6.947660e-02 9.394051e-02 8.059724e-02 7.103755e-02 5.277674e-02 3.593777e-02 9.669018e-03 1.257869e-01 4.300956e-01 -8.541927e-02 -2.976216e-02 -8.613135e-02 -9.342095e-02 -8.585780e-02 -1.001092e-02 -5.122309e-03 1.234081e-03 3.150257e-02 -1.715743e-02 1.683475e-02 1.167916e-01
<VARIANCE> 39
 2.985193e+00 1.483807e+00 1.040037e+00 5.557380e-01 3.614613e-01 3.217413e-01 2.418656e-01 2.011199e-01 2.004210e-01 1.508516e-01 1.406169e-01 1.143196e-01 1.654064e+01 5.802755e-01 1.298769e-01 6.487139e-02 4.969551e-02 4.771579e-02 4.019952e-02 2.048380e-02 1.920865e-02 1.599069e-02 1.504422e-02 1.342678e-02 1.032805e-02 2.544709e+00 6.273860e-02 2.300806e-02 1.241386e-02 8.199369e-03 8.005239e-03 6.973224e-03 4.934530e-03 3.898221e-03 3.232811e-03 2.836464e-03 3.003736e-03 2.334108e-03 3.044472e-01
<GCONST> -3.712470e+01
<MIXTURE> 15 4.246379e-02
<MEAN> 39
 -7.801972e+00 3.789285e-02 -2.533152e-01 -1.595137e-02 -8.568053e-01 -6.671357e-01 -9.143320e-02 3.058149e-01 4.400975e-01 -6.907374e-02 3.897783e-01 -2.278707e-01 6.852668e+01 5.132993e-01 -2.856907e-02 1.447421e-01 1.862805e-02 -3.376189e-02 -6.471406e-02 5.009912e-03 -7.015087e-02 -9.173507e-02 -4.002549e-02 -9.923966e-02 -1.340724e-02 -5.596200e-01 5.285503e-01 6.456751e-02 5.263440e-02 -8.903814e-03 -3.056895e-02 -3.242923e-02 -7.843180e-02 -7.852115e-02 -9.002695e-02 -2.972267e-02 -7.913029e-02 -1.988441e-02 -3.641452e-01
<VARIANCE> 39
 4.733181e+00 2.058904e+00 1.073007e+00 6.722150e-01 5.543663e-01 3.729803e-01 3.620865e-01 2.490419e-01 2.494019e-01 2.102745e-01 1.892924e-01 1.347626e-01 1.347894e+01 6.366625e-01 1.688547e-01 7.684711e-02 5.936911e-02 6.164616e-02 4.776286e-02 3.406631e-02 2.869543e-02 2.498259e-02 1.981199e-02 2.166537e-02 1.406509e-02 2.328244e+00 9.852466e-02 3.137369e-02 1.595756e-02 1.311875e-02 1.243951e-02 9.971948e-03 6.541932e-03 5.096355e-03 5.203543e-03 4.186328e-03 4.520660e-03 2.764474e-03 5.923090e-01
<GCONST> -2.571345e+01
<MIXTURE> 16 4.079579e-02
<MEAN> 39
 -6.265940e+00 3.722607e-01 8.239587e-02 3.073794e-01 -8.727882e-01 -7.671937e-01 -3.287400e-01 -3.000259e-02 1.000386e-01 -3.624711e-01 4.453994e-02 -3.746126e-01 6.630649e+01 1.679412e+00 -2.312611e-01 2.118053e-02 -2.632143e-01 -4.144762e-01 -3.584091e-01 -2.230022e-01 -1.445587e-01 -2.044989e-01 7.350610e-05 -1.985997e-01 -3.689488e-02 1.733610e+00 3.735117e-01 -1.040603e-01 -2.351591e-02 -9.889723e-02 -7.780720e-02 -3.069440e-02 -5.145259e-02 -3.930627e-03 -4.946401e-02 4.834405e-02 -4.046530e-02 4.845461e-03 4.308757e-01
<VARIANCE> 39
 5.168252e+00 2.077907e+00 1.298138e+00 5.580277e-01 5.488672e-01 4.363661e-01 4.197540e-01 3.210345e-01 3.043624e-01 2.261616e-01 2.129938e-01 1.452816e-01 1.440736e+01 5.230729e-01 2.233201e-01 1.276527e-01 7.509433e-02 5.898865e-02 5.410273e-02 3.375844e-02 3.361462e-02 3.324715e-02 3.089221e-02 2.681425e-02 1.706619e-02 3.082875e+00 9.934230e-02 3.382485e-02 1.896055e-02 1.182653e-02 1.103213e-02 9.861654e-03 6.680219e-03 6.675914e-03 5.273313e-03 4.259113e-03 4.334382e-03 3.330218e-03 4.145012e-01
<GCONST> -2.192936e+01
<STATE> 3
<NUMMIXES> 16
<MIXTURE> 1 1.021936e-01
<MEAN> 39
 2.285589e+00 1.045183e+00 -1.430070e+00 -3.033972e+00 -1.650770e+00 -1.923954e-01 -1.147203e+00 -2.764022e-01 -6.516064e-01 1.354887e-01 -1.325935e-01 -4.555890e-01 6.944478e+01 6.542092e-02 1.171932e-01 2.961295e-02 -3.367008e-02 -1.907563e-02 -2.501004e-03 3.108406e-02 1.168838e-02 1.194923e-02 -3.856624e-02 -2.065711e-02 1.377992e-02 -3.122968e-01 -2.108343e-02 -1.991329e-02 4.376864e-04 3.967946e-02 6.901818e-03 -1.432514e-02 -4.642452e-03 -5.029652e-03 9.957689e-03 3.967494e-03 -3.180533e-03 -4.077939e-03 -1.571725e-02
<VARIANCE> 39
 6.053259e-01 1.248957e+00 3.710996e-01 6.273075e-01 5.006282e-01 3.024827e-01 1.819121e-01 2.164218e-01 2.447257e-01 2.167716e-01 2.032364e-01 2.354527e-01 8.786441e+00 2.071985e-02 3.978136e-02 1.097584e-02 1.766512e-02 1.172194e-02 1.090142e-02 9.724701e-03 7.773292e-03 8.725509e-03 8.576138e-03 6.662082e-03 8.636136e-03 2.998343e-01 3.725209e-03 4.331937e-03 1.844692e-03 2.971534e-03 1.834133e-03 2.121971e-03 1.620609e-03 1.437844e-03 1.558091e-03 1.355376e-03 1.393456e-03 1.280330e-03 3.209122e-02
<GCONST> -7.187628e+01
<MIXTURE> 2 4.031739e-02
<MEAN> 39
 -4.001236e-01 -1.822978e+00 9.802876e-01 -8.413752e-01 -2.752172e+00 -1.722731e+00 -8.944619e-01 3.635588e-01 -7.250488e-01 1.177585e-01 -3.548084e-01 -1.612406e-01 7.515850e+01 -4.470393e-01 7.064418e-02 3.740510e-01 -2.105945e-01 -2.063976e-01 4.104218e-02 1.710805e-01 -1.476351e-02 -1.817823e-01 1.001059e-01 4.322841e-02 -3.599184e-03 7.745500e-01 2.528418e-02 1.564238e-01 -8.851513e-03 -3.142392e-02 5.152533e-02 4.700540e-02 -3.397892e-02 -1.071452e-01 3.120529e-02 5.066266e-02 -3.136023e-02 -1.242546e-02 -3.759091e-01
<VARIANCE> 39
 1.243938e+00 2.276509e+00 9.587453e-01 5.344697e-01 4.160946e-01 3.724474e-01 3.486340e-01 4.486788e-01 2.676779e-01 2.810639e-01 1.804447e-01 1.734751e-01 9.791934e+00 8.775531e-02 1.145313e-01 9.923132e-02 4.487559e-02 4.955729e-02 3.568306e-02 4.339187e-02 4.279360e-02 1.833651e-02 2.730846e-02 1.744810e-02 1.749978e-02 8.824772e-01 1.522348e-02 1.235098e-02 1.123339e-02 7.037732e-03 6.397780e-03 6.584398e-03 6.824011e-03 5.034022e-03 4.135452e-03 3.797266e-03 4.197396e-03 2.678548e-03 9.960076e-02
<GCONST> -3.704113e+01
<MIXTURE> 3 9.016098e-02
<MEAN> 39
 1.142328e+00 -2.084541e+00 -1.106985e+00 -5.270823e-01 -1.723761e+00 -1.206355e+00 -1.444038e+00 -4.337798e-02 -8.081195e-02 3.091963e-01 -7.372972e-01 -4.516688e-01 7.348489e+01 -3.065751e-02 -5.022353e-02 6.736974e-02 2.961074e-02 1.214288e-02 -4.772370e-02 1.855563e-02 4.014173e-02 2.792998e-02 -1.754276e-02 -5.014203e-02 1.033965e-02 1.046365e-01 -5.923989e-02 1.486088e-01 7.284247e-02 -6.826163e-02 -1.658186e-02 2.777836e-02 4.181822e-02 -2.079152e-02 -4.627472e-02 -1.884570e-02 3.825912e-02 1.146850e-02 -2.449926e-01
<VARIANCE> 39
 2.090958e+00 1.512145e+00 9.362655e-01 1.194862e+00 8.831803e-01 7.216622e-01 4.199085e-01 6.521564e-01 2.452328e-01 3.538447e-01 2.354373e-01 2.565915e-01 1.305342e+01 2.026381e-01 1.782714e-01 1.593136e-01 1.124873e-01 9.033100e-02 9.974583e-02 5.088317e-02 7.082694e-02 3.279069e-02 3.841278e-02 3.219111e-02 2.703389e-02 2.041213e+00 2.331639e-02 1.850143e-02 8.735780e-03 8.306597e-03 1.144768e-02 7.647587e-03 7.583019e-03 8.024708e-03 3.724246e-03 6.188030e-03 3.677541e-03 3.661527e-03 1.702478e-01
<GCONST> -2.216879e+01
<MIXTURE> 4 6.121599e-02
<MEAN> 39
 -1.381423e+00 5.421551e-01 2.837723e+00 -1.613023e+00 -2.740922e+00 -1.272040e+00 -9.850727e-01 -9.606059e-01 -7.992983e-01 8.222898e-01 -6.853439e-01 8.685365e-02 7.086279e+01 1.873800e-01 1.335116e-01 -2.477104e-01 2.701063e-01 7.217865e-02 -6.964913e-02 6.466475e-02 2.271431e-02 3.643684e-02 -9.029095e-02 1.054123e-01 -3.928480e-02 -1.043744e+00 -4.317220e-02 4.867910e-02 -1.300644e-01 5.932895e-02 8.136911e-02 -6.979926e-03 1.853069e-02 4.744205e-02 3.183491e-02 -6.056599e-02 2.252546e-02 -2.558535e-02 -2.223594e-01
<VARIANCE> 39
 7.092258e-01 1.095383e+00 5.688336e-01 5.665115e-01 2.976811e-01 3.979407e-01 3.115817e-01 2.158370e-01 2.433699e-01 1.985425e-01 1.741597e-01 1.344167e-01 1.045772e+01 1.263689e-01 1.285373e-01 6.736806e-02 5.747335e-02 4.461459e-02 4.542399e-02 3.278236e-02 2.792377e-02 1.931311e-02 2.417513e-02 1.575765e-02 1.132882e-02 1.412437e+00 3.856269e-02 1.987004e-02 7.918646e-03 8.151137e-03 6.604662e-03 7.107389e-03 5.207940e-03 4.004498e-03 3.549894e-03 3.021092e-03 3.117891e-03 2.008198e-03 1.358483e-01
<GCONST> -4.079093e+01
<MIXTURE> 5 3.400192e-02
<MEAN> 39
 -1.762637e+00 -7.982672e-01 2.252010e+00 -2.044380e+00 -2.859624e+00 -1.291006e+00 -5.776578e-01 -2.354062e-01 -7.304676e-01 7.244118e-01 -6.959478e-01 -1.476796e-01 7.645741e+01 -6.285121e-02 3.055400e-01 2.545095e-01 -1.993430e-02 2.319968e-02 -2.150679e-03 -1.307628e-01 -1.663414e-01 1.568735e-02 5.487735e-02 -2.254969e-02 7.189548e-02 -6.171004e-01 3.754557e-02 -1.619722e-02 -4.817566e-02 4.117208e-02 1.730964e-02 -4.665678e-03 -4.312253e-03 1.804855e-02 -2.330713e-03 -2.975752e-02 7.344050e-03 5.494133e-03 -9.002729e-02
<VARIANCE> 39
 4.806338e-01 9.086398e-01 6.190613e-01 3.054241e-01 2.519926e-01 1.869733e-01 2.842489e-01 2.846141e-01 2.027378e-01 1.625499e-01 1.032736e-01 1.388306e-01 4.257523e+00 1.929556e-02 2.120103e-02 1.902551e-02 1.295300e-02 1.154902e-02 9.460271e-03 8.510782e-03 8.697137e-03 9.018651e-03 1.046976e-02 6.598610e-03 5.680451e-03 9.329863e-02 4.153367e-03 3.658504e-03 2.505803e-03 2.068782e-03 2.456822e-03 1.686793e-03 1.876888e-03 1.790334e-03 1.286225e-03 1.771191e-03 1.243577e-03 1.018815e-03 1.611271e-02
<GCONST> -7.813055e+01
<MIXTURE> 6 3.314251e-02
<MEAN> 39
 -1.214547e+00 -2.803269e-02 2.549461e+00 -1.101823e+00 -2.778319e+00 -1.689775e+00 -9.719353e-01 -4.243965e-01 -9.819677e-01 6.909975e-01 -3.419811e-01 -1.582319e-01 7.315921e+01 1.224863e-01 -1.694216e-02 -3.413253e-02 5.942994e-02 1.602575e-02 -3.173743e-02 -5.424761e-04 4.928748e-02 -1.160628e-02 -1.308381e-02 6.716367e-03 1.305638e-02 -2.179610e-01 1.581542e-02 -1.057942e-03 -2.493199e-02 9.584669e-03 1.130914e-02 -5.058552e-03 -2.194621e-04 8.781292e-03 8.733840e-03 -1.376899e-02 -2.404215e-04 3.155177e-03 -5.643207e-02
<VARIANCE> 39
 6.582158e-01 8.059509e-01 8.634767e-01 4.636317e-01 2.178161e-01 2.582660e-01 3.393084e-01 2.813517e-01 2.358503e-01 1.598251e-01 1.096390e-01 8.288718e-02 6.896299e+00 1.475838e-02 2.224046e-02 1.884366e-02 7.451112e-03 6.973296e-03 8.647146e-03 7.171279e-03 7.688844e-03 7.365648e-03 6.144819e-03 4.677176e-03 3.213928e-03 1.218270e-01 2.553725e-03 3.549127e-03 2.171746e-03 9.394497e-04 1.170262e-03 1.214553e-03 1.072402e-03 1.057473e-03 1.143009e-03 7.546460e-04 8.466710e-04 5.811189e-04 9.493186e-03
<GCONST> -8.578792e+01
<MIXTURE> 7 2.729486e-02
<MEAN> 39
 -5.077060e-01 -3.554471e+00 -7.140067e-01 -1.192645e+00 -1.041607e+00 -9.917964e-01 -9.073244e-01 9.059495e-01 -8.774980e-01 -2.326551e-01 -1.015243e+00 -3.185817e-01 7.921889e+01 -1.848952e-01 1.864916e-02 2.985311e-01 7.884943e-02 -2.758646e-01 -1.659061e-01 2.801842e-01 6.588691e-02 -1.327589e-01 -4.775992e-02 3.525978e-02 1.154779e-01 1.435685e-01 1.889150e-02 1.392179e-01 2.922969e-02 -5.851019e-02 -5.804052e-02 4.453384e-02 -1.343565e-03 -5.422132e-02 7.980011e-03 2.923742e-02 3.986961e-02 -2.823633e-02 -2.581646e-01
<VARIANCE> 39
 5.775661e-01 7.264340e-01 4.517514e-01 3.331308e-01 4.418463e-01 4.200502e-01 3.592428e-01 1.972178e-01 2.531317e-01 1.457615e-01 9.251031e-02 1.624453e-01 4.492807e+00 2.252730e-02 4.461190e-02 2.568505e-02 1.956218e-02 2.735409e-02 1.862613e-02 1.579244e-02 1.262552e-02 9.654025e-03 1.061321e-02 8.906986e-03 9.875374e-03 1.680394e-01 3.704793e-03 4.017271e-03 2.745190e-03 2.824940e-03 3.401273e-03 3.482891e-03 3.886537e-03 2.655448e-03 3.000635e-03 1.969797e-03 1.492979e-03 1.487694e-03 2.204439e-02
<GCONST> -6.689919e+01
<MIXTURE> 8 4.743863e-02
<MEAN> 39
 3.317301e-01 -2.211154e+00 -1.637562e+00 -2.084452e+00 -4.953764e-01 -2.993312e-01 -1.424948e+00 9.804676e-02 -3.957610e-01 2.607557e-01 -6.560329e-01 -8.460612e-01 7.672765e+01 1.702655e-01 1.973201e-01 4.220197e-03 -1.403503e-01 2.995661e-02 1.072358e-01 -2.643143e-02 -7.991307e-02 -1.343133e-02 1.894393e-02 7.816873e-02 3.252595e-03 -5.157517e-01 7.902826e-03 3.186135e-02 1.141363e-02 1.488752e-02 -2.983709e-02 -1.983532e-02 1.707680e-02 5.286447e-03 -3.982308e-03 -1.299313e-02 8.304014e-04 2.061469e-02 -1.012444e-01
<VARIANCE> 39
 6.079167e-01 1.134529e+00 3.485491e-01 4.560268e-01 3.680888e-01 4.622662e-01 2.538279e-01 2.482205e-01 2.513719e-01 2.514414e-01 2.521471e-01 1.910119e-01 4.355149e+00 3.193717e-02 2.637626e-02 1.137552e-02 2.151335e-02 1.184886e-02 1.506254e-02 1.145994e-02 1.215093e-02 9.925175e-03 9.739740e-03 7.231698e-03 7.711104e-03 1.867178e-01 3.946896e-03 3.409308e-03 1.810289e-03 2.280581e-03 1.931930e-03 1.918449e-03 1.406674e-03 1.753801e-03 1.439643e-03 1.375729e-03 1.546510e-03 1.050253e-03 2.399873e-02
<GCONST> -7.223795e+01
<MIXTURE> 9 1.173224e-01
<MEAN> 39
 1.722075e+00 -4.136856e-01 -1.653859e+00 -2.486151e+00 -1.239148e+00 -2.213349e-01 -1.445007e+00 -3.487989e-01 -8.109607e-01 4.442434e-01 -8.342204e-02 -6.289743e-01 7.116345e+01 2.844578e-02 -8.957820e-02 -9.541840e-03 2.748203e-02 1.664702e-02 2.382735e-02 -1.628839e-02 -6.766121e-03 1.334452e-03 3.721476e-02 9.262969e-03 6.286627e-04 1.701002e-01 -1.172768e-01 3.342654e-02 7.257930e-02 1.100458e-01 -5.771118e-03 -7.236679e-02 3.336265e-02 2.297948e-02 4.946802e-02 -3.780151e-02 -3.953180e-02 8.200988e-03 -2.334059e-01
<VARIANCE> 39
 8.217178e-01 1.641132e+00 4.731187e-01 7.116498e-01 5.330365e-01 4.623458e-01 3.180953e-01 3.203840e-01 2.767848e-01 3.441779e-01 2.189029e-01 2.154866e-01 1.212361e+01 1.689874e-01 2.596330e-01 3.921584e-02 1.739551e-01 4.216952e-02 6.002638e-02 3.595146e-02 4.032160e-02 3.389831e-02 3.486266e-02 2.489750e-02 1.720988e-02 2.523041e+00 2.848946e-02 1.894044e-02 5.694924e-03 9.026008e-03 9.145915e-03 5.893766e-03 4.983225e-03 5.606892e-03 3.902143e-03 5.634615e-03 3.455254e-03 3.126105e-03 1.774337e-01
<GCONST> -3.151087e+01
<MIXTURE> 10 7.001501e-02
<MEAN> 39
 2.626608e+00 1.843472e+00 -1.181809e+00 -2.633724e+00 -1.678321e+00 -5.849963e-01 -9.099572e-01 -1.957326e-01 -4.941982e-01 -1.392007e-01 -3.719967e-01 -4.957424e-01 6.490607e+01 -8.148136e-03 -2.474069e-02 4.128765e-03 6.456650e-02 -8.269276e-03 1.836383e-02 -5.395296e-03 -2.187342e-02 -7.255875e-04 1.658677e-03 1.369269e-03 2.031467e-02 -5.654365e-02 -9.076285e-02 -1.050444e-01 -1.490443e-03 6.059704e-02 3.141307e-02 3.255374e-03 -2.694497e-02 -2.144992e-02 -4.648366e-03 3.478920e-02 1.335648e-02 -2.749304e-03 2.451126e-01
<VARIANCE> 39
 5.067130e-01 1.048020e+00 4.459497e-01 8.471583e-01 4.454150e-01 4.015817e-01 1.830055e-01 2.623324e-01 2.091486e-01 1.560254e-01 1.465199e-01 2.037151e-01 1.415213e+01 5.610200e-02 1.220713e-01 2.782611e-02 8.275223e-02 2.811950e-02 2.749966e-02 2.001745e-02 2.416432e-02 2.051273e-02 2.279292e-02 1.253860e-02 1.241702e-02 1.692973e+00 1.594826e-02 1.531728e-02 4.660678e-03 1.277160e-02 5.487829e-03 5.004309e-03 3.631182e-03 3.687765e-03 3.724008e-03 3.463570e-03 2.364142e-03 2.296278e-03 2.067980e-01
<GCONST> -4.546442e+01
<MIXTURE> 11 5.988185e-02
<MEAN> 39
 -8.124896e-01 -2.944882e+00 -7.203191e-01 -1.048866e+00 -1.524871e+00 -1.271410e+00 -4.150514e-01 8.019102e-01 -7.494850e-01 -2.170890e-01 -1.010690e+00 -1.479263e-01 7.892039e+01 9.454589e-02 4.533792e-03 -4.598112e-02 -3.190261e-03 6.352229e-02 1.820639e-02 -4.691193e-02 -7.408544e-03 2.562216e-02 1.706108e-02 -1.722495e-02 -1.220924e-02 -1.066321e-01 2.808222e-02 5.516091e-02 1.129575e-02 -6.875581e-03 -5.455867e-03 6.295394e-03 -2.283521e-02 -2.522246e-02 1.822008e-02 1.490573e-02 9.632790e-03 -1.006410e-02 -1.882617e-01
<VARIANCE> 39
 5.931580e-01 9.240693e-01 7.284789e-01 4.395592e-01 5.546778e-01 3.937713e-01 3.112784e-01 1.790007e-01 2.547074e-01 1.537541e-01 9.774919e-02 1.255664e-01 4.223447e+00 3.365895e-02 3.326628e-02 2.347837e-02 1.977387e-02 2.727854e-02 1.214486e-02 1.719177e-02 8.949265e-03 1.228417e-02 1.034750e-02 6.037530e-03 6.762987e-03 2.989646e-01 5.704537e-03 4.607243e-03 3.384930e-03 2.980068e-03 3.150471e-03 2.068326e-03 2.553486e-03 1.534604e-03 1.489382e-03 1.434737e-03 1.129887e-03 1.097721e-03 4.388052e-02
<GCONST> -6.844144e+01
<MIXTURE> 12 1.213728e-01
<MEAN> 39
 -2.464388e-01 5.353007e-01 6.789137e-01 -8.850289e-01 -1.930638e+00 -1.330623e+00 -1.057624e+00 -6.332605e-01 -2.401610e-01 2.043285e-01 -5.230538e-01 -1.316208e-01 6.804781e+01 9.834767e-03 -7.295301e-02 -1.026636e-01 -2.604028e-02 5.283632e-02 1.159811e-02 3.852009e-03 6.638500e-02 1.569508e-02 -2.102789e-02 3.392954e-03 -1.153577e-02 2.226975e-01 -4.686712e-03 -9.206387e-02 -1.279423e-02 -3.876354e-02 -1.569148e-02 1.571502e-02 7.867340e-03 2.830747e-02 -2.802688e-02 6.582645e-03 -8.963439e-03 -4.404241e-03 3.573655e-01
<VARIANCE> 39
 2.669123e+00 2.504545e+00 1.422310e+00 8.040177e-01 7.241310e-01 6.333597e-01 8.657279e-01 5.936267e-01 3.238448e-01 4.201617e-01 2.557300e-01 2.159032e-01 2.458817e+01 1.369046e-01 1.735929e-01 1.080188e-01 5.389016e-02 5.113200e-02 4.103665e-02 5.381668e-02 4.195925e-02 2.796909e-02 2.621603e-02 1.800094e-02 1.545526e-02 1.945082e+00 2.472096e-02 1.974730e-02 1.322822e-02 8.955060e-03 8.386023e-03 7.910598e-03 1.032166e-02 7.345612e-03 4.378597e-03 5.333547e-03 3.416776e-03 3.351891e-03 2.255832e-01
<GCONST> -2.461320e+01
<MIXTURE> 13 6.752411e-02
<MEAN> 39
 -1.888510e+00 1.084096e+00 3.220372e+00 -2.229755e+00 -2.427957e+00 -1.063790e+00 -1.168513e+00 -9.218628e-01 -5.729942e-01 5.785867e-01 -9.185933e-01 1.969647e-01 7.154209e+01 4.245614e-02 5.056281e-02 3.560084e-02 3.251494e-03 1.336083e-02 1.554929e-02 -2.121938e-02 -2.049088e-02 -1.234877e-03 8.458781e-03 -1.001100e-02 1.534082e-02 -2.915388e-01 2.737383e-02 -3.319563e-02 -4.160054e-02 4.531117e-02 -1.256254e-02 -1.685522e-02 2.049420e-02 1.277568e-02 -6.928043e-03 6.790073e-04 1.990175e-02 -1.460878e-02 -2.641347e-02
<VARIANCE> 39
 4.849197e-01 7.971753e-01 4.073910e-01 4.016992e-01 2.663571e-01 2.331791e-01 2.483077e-01 1.779733e-01 1.713809e-01 1.731942e-01 1.329806e-01 9.688513e-02 6.836388e+00 2.437632e-02 3.890273e-02 1.856780e-02 2.126285e-02 1.510808e-02 1.139468e-02 1.322540e-02 9.464077e-03 7.414604e-03 7.744275e-03 6.608802e-03 5.956474e-03 3.359737e-01 5.958162e-03 4.731550e-03 3.617055e-03 3.585204e-03 2.313820e-03 2.451986e-03 2.402831e-03 1.954687e-03 1.195224e-03 1.291925e-03 1.168599e-03 1.033083e-03 4.026609e-02
<GCONST> -7.267580e+01
<MIXTURE> 14 4.265668e-02
<MEAN> 39
 -1.619493e+00 -5.704415e-01 2.318748e+00 -1.689235e+00 -3.041041e+00 -1.397612e+00 -8.242621e-01 -4.115334e-01 -1.004250e+00 8.130846e-01 -6.018752e-01 -1.580268e-01 7.462004e+01 -1.544022e-01 3.581002e-01 2.295518e-01 -1.144203e-01 -3.538655e-05 8.307547e-02 -5.077835e-02 -1.921132e-01 3.434726e-02 9.551607e-02 -7.357661e-02 5.550907e-02 -5.104936e-01 9.793302e-02 2.441110e-02 -1.023945e-01 5.895538e-02 7.527701e-02 -8.436375e-03 -1.544132e-02 1.221144e-02 4.375435e-02 -5.388618e-02 -5.527331e-04 6.569053e-03 -3.246681e-01
<VARIANCE> 39
 6.468406e-01 1.307154e+00 6.016206e-01 4.763974e-01 2.477166e-01 3.555101e-01 3.110126e-01 2.933858e-01 2.277485e-01 2.154619e-01 1.502145e-01 1.564499e-01 6.831809e+00 6.890821e-02 8.524069e-02 3.778676e-02 4.020299e-02 2.539585e-02 2.637192e-02 2.372885e-02 2.426699e-02 1.488833e-02 1.924813e-02 1.367602e-02 1.016911e-02 8.477930e-01 1.063806e-02 1.101179e-02 7.239987e-03 5.166013e-03 5.353965e-03 4.484602e-03 5.070942e-03 4.271163e-03 2.851561e-03 2.809237e-03 2.507475e-03 2.121055e-03 9.519024e-02
<GCONST> -4.985997e+01
<MIXTURE> 15 3.896974e-02
<MEAN> 39
 -1.191619e+00 -2.579062e+00 6.031689e-01 -1.575373e+00 -2.551898e+00 -1.152369e+00 -1.312865e-01 6.558581e-01 -1.041701e+00 2.273223e-02 -6.931265e-01 -3.159970e-01 7.850642e+01 -1.100071e-01 3.501510e-01 3.418370e-01 -1.187215e-01 -2.018922e-01 -1.517925e-02 1.851754e-02 -1.591828e-01 2.275031e-02 1.341098e-01 3.162497e-02 -4.695983e-03 -4.847941e-01 3.469737e-02 6.108135e-02 -4.739826e-03 1.956522e-02 5.282857e-02 -5.449981e-03 -7.388780e-02 -4.676175e-02 3.622446e-02 1.650472e-02 -1.529603e-02 9.566091e-03 -2.170437e-01
<VARIANCE> 39
 5.190231e-01 8.449174e-01 5.450500e-01 3.476676e-01 3.775261e-01 2.937908e-01 2.906790e-01 2.128968e-01 2.462218e-01 2.110552e-01 8.273673e-02 1.288433e-01 3.845876e+00 3.085285e-02 3.534906e-02 2.764983e-02 1.784879e-02 2.718224e-02 1.558167e-02 2.206539e-02 1.465112e-02 1.455140e-02 1.027962e-02 6.879447e-03 6.943290e-03 1.633616e-01 4.897859e-03 7.496329e-03 5.140504e-03 3.894286e-03 3.220717e-03 3.009440e-03 2.751549e-03 2.280540e-03 2.122144e-03 2.189860e-03 1.172076e-03 1.613684e-03 4.125271e-02
<GCONST> -6.595058e+01
<MIXTURE> 16 4.648736e-02
<MEAN> 39
 2.389373e-01 -2.622730e+00 -1.610305e+00 -1.960704e+00 -5.087891e-01 7.261043e-02 -1.704972e+00 2.988078e-01 -4.453654e-01 6.858695e-03 -6.274279e-01 -8.958227e-01 7.710511e+01 -9.552319e-02 -1.285853e-01 9.654932e-02 9.071887e-02 -1.324209e-02 -8.593356e-02 1.434908e-02 7.490274e-02 1.031007e-02 -3.388084e-02 -6.619998e-02 4.684465e-02 3.538952e-01 -1.982112e-04 2.622093e-02 3.743080e-02 3.921437e-02 -3.854472e-02 -5.209219e-02 4.009023e-02 6.950276e-04 -1.606044e-02 -2.938641e-03 -7.347428e-03 3.373295e-02 -1.143087e-01
<VARIANCE> 39
 7.887297e-01 8.628308e-01 4.242719e-01 5.237576e-01 3.960890e-01 4.353681e-01 2.873320e-01 1.988545e-01 1.921364e-01 2.790520e-01 1.701220e-01 1.718431e-01 4.350554e+00 3.834131e-02 4.311763e-02 1.591956e-02 2.804116e-02 2.024840e-02 2.347957e-02 1.812785e-02 1.049473e-02 1.400243e-02 7.930133e-03 1.005075e-02 1.048418e-02 2.567199e-01 6.464083e-03 9.089167e-03 3.270039e-03 4.106552e-03 3.260666e-03 2.469430e-03 3.054767e-03 2.324928e-03 1.876015e-03 1.948534e-03 1.853394e-03 1.503798e-03 6.997067e-02
<GCONST> -6.229544e+01
<STATE> 4
<NUMMIXES> 16
<MIXTURE> 1 4.499252e-02
<MEAN> 39
 -8.018074e+00 8.815248e-01 4.534174e-01 3.230160e-01 -6.038507e-01 -4.232993e-01 -2.204791e-02 1.368977e-01 2.692970e-01 -3.094811e-01 3.026292e-01 -3.011176e-01 6.489716e+01 1.724139e-02 -6.102340e-02 -1.245231e-02 6.445966e-03 1.398692e-02 1.817379e-02 3.381767e-02 1.837780e-02 1.673623e-02 2.132908e-02 1.037504e-02 1.932438e-02 -4.129277e-01 1.461614e-01 3.830133e-02 2.699803e-02 1.294388e-02 5.904592e-03 -1.015426e-02 -1.890283e-02 -1.724123e-02 -1.808562e-02 -9.473466e-03 -1.413284e-02 -2.367267e-03 -9.722313e-02
<VARIANCE> 39
 6.506847e+00 1.421454e+00 1.218516e+00 4.481280e-01 3.978335e-01 2.713670e-01 2.636796e-01 2.210550e-01 2.172716e-01 1.865122e-01 1.797903e-01 1.291441e-01 2.360818e+01 2.667496e-01 6.826166e-02 3.792907e-02 2.905054e-02 2.385417e-02 2.048155e-02 1.528058e-02 1.389015e-02 1.309557e-02 1.203718e-02 1.127461e-02 9.196511e-03 8.282536e-01 4.570424e-02 8.693340e-03 6.695171e-03 4.336984e-03 3.989602e-03 3.511898e-03 2.552056e-03 2.340855e-03 2.470597e-03 2.093865e-03 2.065299e-03 1.635486e-03 1.109697e-01
<GCONST> -4.904522e+01
<MIXTURE> 2 6.964106e-02
<MEAN> 39
 -1.345091e-01 2.454534e+00 4.423441e-01 -5.100307e-01 -1.131992e+00 -9.563276e-01 -5.792649e-01 -6.801015e-01 -1.710891e-01 1.694210e-02 -3.508321e-01 -1.173961e-01 5.954336e+01 -6.523474e-01 2.199859e-01 8.687218e-02 2.654696e-01 2.822039e-01 1.283385e-01 1.110789e-02 1.484949e-02 1.126312e-03 -1.048783e-01 8.888298e-02 -1.879749e-02 -1.666961e+00 -2.135042e-01 -2.044463e-01 5.776256e-03 1.673261e-02 -1.613518e-03 6.023378e-03 3.011957e-04 3.742578e-02 -6.658830e-03 7.183708e-03 5.070360e-03 -9.798742e-03 6.659694e-01
<VARIANCE> 39
 2.867543e+00 1.103805e+00 1.587255e+00 7.560155e-01 6.100552e-01 4.585737e-01 3.695113e-01 3.325363e-01 1.941705e-01 2.685690e-01 2.278081e-01 1.852996e-01 1.976454e+01 3.518541e-01 2.061108e-01 9.837160e-02 7.749876e-02 5.928371e-02 4.686935e-02 3.981376e-02 3.401388e-02 1.961550e-02 2.289101e-02 2.113628e-02 1.721501e-02 3.069566e+00 5.636805e-02 2.839741e-02 1.350225e-02 1.075543e-02 9.447520e-03 6.101266e-03 6.214860e-03 5.188196e-03 3.522221e-03 4.083380e-03 3.569722e-03 2.806291e-03 4.693416e-01
<GCONST> -2.678492e+01
<MIXTURE> 3 8.143105e-02
<MEAN> 39
 -1.309442e-01 -1.160943e+00 6.288307e-01 -8.194404e-01 -2.206256e+00 -1.515677e+00 -7.518288e-01 6.362246e-02 -5.971787e-01 1.543076e-01 -5.769163e-01 -7.822511e-02 7.249663e+01 6.432024e-02 5.304403e-01 3.999188e-02 2.038300e-01 1.052532e-01 -6.475347e-02 6.323668e-02 -1.588487e-01 9.308186e-02 -4.740060e-02 2.161594e-02 2.582451e-02 -1.938669e+00 -1.355496e-01 2.024614e-01 -3.292448e-02 4.273064e-02 9.158257e-02 3.643517e-02 1.623497e-02 -4.151525e-02 2.644315e-02 -1.882469e-02 1.467782e-02 -2.075113e-02 -6.179370e-01
<VARIANCE> 39
 1.937509e+00 1.776650e+00 2.127942e+00 8.966485e-01 8.671050e-01 6.539667e-01 5.706711e-01 4.687461e-01 3.354310e-01 3.371405e-01 2.333210e-01 2.285644e-01 1.456073e+01 2.000085e-01 1.570554e-01 1.032839e-01 6.137671e-02 5.790945e-02 5.048244e-02 4.149917e-02 4.238273e-02 2.088729e-02 3.433862e-02 2.150267e-02 1.883835e-02 1.747257e+00 5.255762e-02 2.406093e-02 1.484257e-02 1.188620e-02 1.080359e-02 9.103407e-03 7.574055e-03 7.374729e-03 4.345882e-03 5.840657e-03 4.107899e-03 3.151750e-03 2.633077e-01
<GCONST> -2.345807e+01
<MIXTURE> 4 4.616458e-02
<MEAN> 39
 -2.898151e+00 2.165108e+00 7.027132e-01 4.973506e-01 7.539004e-02 -2.973288e-01 -2.971964e-01 -3.957032e-01 -1.542792e-01 -1.312789e-01 -7.303409e-02 -1.696759e-01 5.167742e+01 -9.479564e-02 -4.964701e-02 3.242251e-02 5.133648e-02 1.372608e-01 1.186378e-01 5.836625e-02 1.043886e-02 -9.578742e-04 6.040961e-03 -1.796852e-03 -9.414361e-03 -8.750027e-01 -9.065163e-02 -1.143920e-01 -5.941050e-02 -3.811561e-02 -8.247565e-02 -4.663937e-02 -1.243493e-02 2.977770e-02 2.290909e-02 3.019998e-03 5.134466e-03 -6.797289e-03 1.037652e+00
<VARIANCE> 39
 1.703607e+00 4.457818e-01 3.301629e-01 2.430351e-01 2.432790e-01 2.126410e-01 1.889139e-01 1.858173e-01 1.249336e-01 1.155685e-01 1.074543e-01 8.264129e-02 7.446119e+00 4.894701e-01 8.152837e-02 5.395564e-02 4.881131e-02 4.348133e-02 2.841005e-02 2.206279e-02 2.274441e-02 1.560770e-02 1.688796e-02 1.441645e-02 1.107655e-02 1.882895e+00 5.471810e-02 2.200899e-02 1.226898e-02 8.856894e-03 7.063305e-03 5.435740e-03 4.095468e-03 3.966518e-03 3.091750e-03 3.119492e-03 2.858652e-03 2.094625e-03 4.292299e-01
<GCONST> -4.565605e+01
<MIXTURE> 5 1.113442e-01
<MEAN> 39
 3.706234e-01 -2.227470e+00 -9.189889e-01 -1.088598e+00 -1.570429e+00 -8.416869e-01 -8.515125e-01 4.792468e-01 -5.388765e-01 -6.850894e-02 -6.570754e-01 -3.321460e-01 7.554475e+01 1.861966e-02 4.357562e-02 6.221529e-02 -7.999007e-03 -6.543200e-03 7.745885e-03 7.938712e-03 8.945218e-04 -6.544232e-03 1.451824e-03 7.029695e-03 1.933479e-02 -1.674817e-01 -1.082929e-02 8.397639e-02 4.317328e-02 2.799769e-02 -5.284783e-03 -2.166087e-02 3.543379e-03 -3.474909e-02 1.362297e-02 4.856784e-03 6.030520e-03 7.862008e-03 -2.807322e-01
<VARIANCE> 39
 1.972361e+00 2.188050e+00 1.210669e+00 1.157081e+00 9.545678e-01 8.408771e-01 5.919884e-01 4.089090e-01 3.282807e-01 2.273762e-01 2.317964e-01 2.205324e-01 1.281793e+01 6.211947e-02 6.148254e-02 4.900010e-02 3.648065e-02 3.598198e-02 2.779619e-02 2.446720e-02 1.913619e-02 1.488874e-02 1.415060e-02 1.082880e-02 1.063702e-02 4.765483e-01 1.027906e-02 1.161101e-02 5.311146e-03 5.876095e-03 5.084160e-03 4.502161e-03 4.169734e-03 3.896918e-03 2.491084e-03 2.434392e-03 2.034063e-03 1.835177e-03 1.115738e-01
<GCONST> -4.374876e+01
<MIXTURE> 6 6.951132e-02
<MEAN> 39
 -5.873843e+00 -1.364094e-01 -4.615164e-01 7.821671e-02 -7.971444e-01 -8.058279e-01 -4.365801e-01 2.440049e-01 3.732696e-01 -9.196730e-02 3.106605e-01 -2.707437e-01 6.670024e+01 1.920609e-04 -2.152895e-01 -4.395548e-02 -4.613007e-02 -1.054967e-01 -7.019680e-02 -1.159784e-03 4.655654e-02 1.292869e-02 1.155214e-02 -3.026340e-03 -3.486110e-03 1.135757e+00 3.283310e-01 1.446527e-01 1.062009e-01 6.056542e-03 2.126658e-03 6.990079e-03 -6.124783e-03 -6.139432e-02 -6.663883e-02 -7.686737e-03 -6.441075e-02 -1.446461e-03 -5.846411e-01
<VARIANCE> 39
 4.943856e+00 2.004672e+00 1.116421e+00 8.621426e-01 5.788401e-01 4.096353e-01 4.390507e-01 2.964981e-01 2.623861e-01 2.180079e-01 1.799264e-01 1.337560e-01 2.098244e+01 1.232154e+00 2.592838e-01 1.298642e-01 8.366835e-02 8.227408e-02 5.503500e-02 4.036118e-02 4.286966e-02 3.446620e-02 2.313128e-02 3.217706e-02 1.521561e-02 7.064379e+00 1.267085e-01 3.685057e-02 1.910545e-02 1.860600e-02 1.444982e-02 9.234948e-03 8.422611e-03 6.455206e-03 5.420430e-03 4.906626e-03 4.878462e-03 3.366103e-03 7.038006e-01
<GCONST> -1.726454e+01
<MIXTURE> 7 3.934892e-02
<MEAN> 39
 1.166631e+00 1.849330e+00 6.426303e-01 -3.003080e-01 -1.530911e+00 -1.863300e+00 1.444647e-03 -1.192172e+00 -2.046247e-01 4.026833e-01 -9.764992e-01 1.729169e-01 6.382107e+01 -3.118377e-02 1.586883e-01 -7.501054e-03 2.568776e-03 2.381045e-02 2.107499e-02 -1.696166e-02 1.876481e-02 2.793456e-02 -3.140825e-02 1.504869e-02 -1.655586e-02 -4.655810e-01 -7.361638e-02 -1.431520e-02 6.877274e-03 6.870946e-03 1.949205e-02 1.786726e-02 -3.545273e-02 3.833587e-02 -5.757233e-03 -2.557947e-02 3.236651e-02 -8.707197e-03 2.817932e-02
<VARIANCE> 39
 5.696107e-01 7.645460e-01 4.140662e-01 4.240577e-01 3.110420e-01 3.416502e-01 2.641999e-01 2.384996e-01 1.605593e-01 1.542531e-01 2.026386e-01 2.837855e-01 6.220476e+00 3.423917e-02 3.664341e-02 1.437045e-02 1.387974e-02 1.619042e-02 1.240556e-02 1.286947e-02 1.324048e-02 7.706410e-03 9.411588e-03 1.023500e-02 8.996766e-03 2.481211e-01 1.142224e-02 9.133617e-03 4.122742e-03 3.073995e-03 3.596603e-03 2.714129e-03 2.615898e-03 2.918363e-03 1.592032e-03 1.810899e-03 1.871941e-03 1.729892e-03 6.185973e-02
<GCONST> -6.517947e+01
<MIXTURE> 8 6.197108e-02
<MEAN> 39
 -6.110711e+00 2.677619e+00 6.760445e-01 7.776588e-01 -6.168406e-01 -8.453713e-01 -6.816717e-01 -3.378626e-01 -2.290959e-01 -5.691026e-01 7.139513e-02 -3.823395e-01 6.447748e+01 -1.180482e+00 -3.020315e-03 -3.305120e-02 1.803591e-01 2.514787e-01 2.388204e-01 9.256659e-02 5.166303e-02 1.103574e-02 -4.488416e-02 4.551136e-02 -4.103041e-02 -5.100555e-01 2.766897e-01 -1.879743e-01 -2.577485e-02 -8.472895e-02 -8.587493e-02 -3.217493e-02 2.735948e-02 1.737651e-02 1.399922e-02 5.139205e-02 -3.333029e-02 1.880095e-02 2.328369e-01
<VARIANCE> 39
 5.602141e+00 2.022211e+00 1.114818e+00 6.046546e-01 4.838364e-01 4.213313e-01 3.000103e-01 2.301157e-01 1.996235e-01 1.620264e-01 1.789327e-01 1.187549e-01 1.761379e+01 5.232782e-01 1.685251e-01 7.268952e-02 4.609687e-02 4.046191e-02 3.484035e-02 2.590517e-02 2.432779e-02 1.829276e-02 1.702617e-02 1.737529e-02 1.193441e-02 1.597647e+00 6.102879e-02 3.455499e-02 1.335268e-02 9.951778e-03 7.044308e-03 6.727868e-03 4.931817e-03 4.197455e-03 3.527741e-03 3.060252e-03 3.156192e-03 2.241075e-03 2.518720e-01
<GCONST> -3.361924e+01
<MIXTURE> 9 9.204855e-02
<MEAN> 39
 -1.391947e-01 -1.110651e+00 1.350410e-01 -8.179832e-01 -2.177384e+00 -1.535556e+00 -9.141994e-01 -5.966331e-02 -4.495640e-01 1.453965e-01 -5.176907e-01 -2.232761e-01 7.318140e+01 4.165282e-01 -4.474303e-01 -2.036477e-03 -2.186629e-01 -1.660739e-01 -1.087763e-02 -2.213727e-02 1.097657e-01 -1.027478e-01 7.539061e-02 -7.647113e-02 2.901435e-02 1.682449e+00 -3.025826e-01 1.334813e-01 7.474237e-03 5.797575e-02 9.935863e-02 6.487822e-02 4.322193e-02 -3.743064e-03 2.889821e-02 -1.814422e-02 2.919989e-02 -5.201140e-03 -6.313656e-01
<VARIANCE> 39
 2.703771e+00 2.173694e+00 2.510767e+00 1.050053e+00 8.091224e-01 7.297598e-01 5.206540e-01 4.846361e-01 2.878217e-01 2.999969e-01 2.578015e-01 2.107740e-01 1.461515e+01 5.850792e-01 1.638907e-01 1.210757e-01 7.220405e-02 7.492699e-02 6.272735e-02 4.344366e-02 4.686595e-02 2.569096e-02 3.477348e-02 2.538283e-02 1.996160e-02 1.918021e+00 9.356701e-02 3.096061e-02 1.783136e-02 1.295751e-02 1.215187e-02 1.140594e-02 7.420850e-03 9.077128e-03 5.018863e-03 6.043633e-03 5.474944e-03 3.376824e-03 3.192664e-01
<GCONST> -1.791378e+01
<MIXTURE> 10 7.110211e-02
<MEAN> 39
 -1.319343e+00 3.794107e-02 2.349484e+00 -1.512369e+00 -2.708430e+00 -1.478863e+00 -8.302301e-01 -4.286510e-01 -6.957670e-01 6.695765e-01 -5.007169e-01 -4.962860e-03 7.294841e+01 4.163076e-02 1.232805e-01 4.865907e-02 2.556895e-02 1.540724e-02 7.156032e-03 -1.931883e-02 -3.381151e-02 4.388195e-03 1.408156e-02 -5.301795e-03 1.936293e-02 -4.422903e-01 6.315466e-03 3.388039e-02 -6.386308e-02 6.578173e-02 3.535149e-02 -2.230808e-03 9.261345e-03 7.768063e-03 1.784488e-02 -3.883930e-02 1.158527e-02 -6.363938e-03 -2.553252e-01
<VARIANCE> 39
 9.228508e-01 1.492877e+00 9.367512e-01 5.777351e-01 2.808155e-01 3.345152e-01 4.321279e-01 3.707210e-01 2.797892e-01 1.876555e-01 1.657354e-01 1.521269e-01 1.106167e+01 4.941335e-02 7.986438e-02 5.019943e-02 3.376531e-02 1.931890e-02 2.024774e-02 2.150756e-02 2.415276e-02 1.171292e-02 1.595364e-02 1.017082e-02 7.725021e-03 6.553652e-01 1.517196e-02 1.154696e-02 5.943812e-03 4.675500e-03 4.353725e-03 3.905953e-03 3.893593e-03 3.069850e-03 2.441907e-03 2.446462e-03 2.068104e-03 1.521725e-03 1.087513e-01
<GCONST> -5.119275e+01
<MIXTURE> 11 5.411144e-02
<MEAN> 39
 -3.271148e+00 9.185608e-01 4.821266e-01 1.136522e-01 -1.301603e+00 -1.203773e+00 -5.651653e-01 -3.175635e-01 -1.234176e-01 -3.260714e-01 -1.520193e-01 -3.983405e-01 6.589619e+01 1.631283e+00 -2.842708e-01 6.925914e-02 -2.654185e-01 -4.085193e-01 -2.837945e-01 -1.647896e-01 -1.001904e-01 -1.620663e-01 9.551707e-02 -1.819038e-01 2.868488e-02 1.841005e+00 1.797272e-02 -9.232198e-02 -2.600496e-02 -5.287144e-02 -1.110666e-02 2.325400e-02 2.946313e-03 2.834179e-02 -1.092573e-02 4.215042e-02 -8.053151e-03 2.152867e-02 2.570923e-01
<VARIANCE> 39
 7.540708e+00 1.815831e+00 1.414917e+00 6.548168e-01 7.516687e-01 6.292812e-01 4.730941e-01 3.324909e-01 2.455089e-01 2.086202e-01 2.282270e-01 1.446079e-01 1.983793e+01 7.181718e-01 2.568765e-01 1.398716e-01 8.501697e-02 6.337771e-02 6.533328e-02 4.152323e-02 4.226088e-02 3.021477e-02 3.129105e-02 2.877830e-02 2.068626e-02 2.895422e+00 1.234789e-01 2.710757e-02 1.424820e-02 9.659396e-03 1.210659e-02 9.944076e-03 6.762633e-03 5.900681e-03 4.346549e-03 3.762588e-03 4.758177e-03 2.660339e-03 4.089742e-01
<GCONST> -1.999401e+01
<MIXTURE> 12 5.248140e-02
<MEAN> 39
 -1.144033e+00 1.486300e+00 7.603699e-01 8.052935e-02 -1.909870e+00 -1.868663e+00 -7.276004e-01 -2.746148e-01 -1.227880e-01 -2.397669e-01 -2.327464e-01 -1.478038e-01 6.676637e+01 -9.255435e-01 7.592241e-01 -1.004501e-01 2.301142e-01 3.682470e-01 1.774452e-01 1.087483e-02 -1.472757e-02 6.896399e-02 -1.730243e-01 1.311344e-01 -7.265907e-02 -1.812916e+00 -3.107723e-01 -5.735357e-02 6.121689e-03 -2.822737e-02 6.979768e-02 9.609310e-02 1.283327e-02 -7.800625e-04 -3.601960e-02 2.592572e-02 1.144268e-03 -9.723651e-03 5.177723e-02
<VARIANCE> 39
 3.758189e+00 1.930077e+00 1.233641e+00 5.509276e-01 5.978425e-01 3.823285e-01 3.646620e-01 2.572652e-01 2.239037e-01 2.547091e-01 2.421480e-01 1.662496e-01 1.938063e+01 6.404991e-01 1.885882e-01 1.146310e-01 6.764223e-02 4.356979e-02 4.404380e-02 4.103516e-02 3.547493e-02 2.297569e-02 2.246333e-02 2.114706e-02 1.415733e-02 2.808858e+00 6.136965e-02 3.251234e-02 1.162859e-02 8.359465e-03 9.556760e-03 6.329510e-03 6.562069e-03 5.460362e-03 3.387397e-03 4.285706e-03 4.084501e-03 2.720656e-03 2.379583e-01
<GCONST> -2.748246e+01
<MIXTURE> 13 5.608071e-02
<MEAN> 39
 -8.822935e+00 1.740126e+00 4.785963e-01 5.861871e-01 -3.866827e-01 -3.350128e-01 -1.644962e-01 4.032751e-02 1.203839e-01 -4.622941e-01 2.270598e-01 -4.028614e-01 6.497694e+01 3.065995e-01 -2.383056e-01 -3.688504e-02 -1.014016e-01 -1.380036e-01 -1.040679e-01 3.994668e-02 2.636608e-02 1.746668e-02 3.992039e-02 2.148026e-03 1.340664e-02 3.952276e-01 5.896240e-01 -5.727281e-02 8.141210e-03 -5.922004e-02 -9.805286e-02 -8.926805e-02 -4.569246e-02 -3.347246e-02 -2.495366e-02 2.995184e-02 -3.502552e-02 2.086388e-02 -2.504479e-02
<VARIANCE> 39
 2.697490e+00 1.594683e+00 1.160574e+00 6.784220e-01 4.340283e-01 3.265848e-01 2.526919e-01 2.038368e-01 2.208011e-01 1.656829e-01 1.534855e-01 1.223518e-01 1.428972e+01 1.132267e+00 1.440688e-01 8.401003e-02 5.048942e-02 5.418995e-02 4.775443e-02 3.062341e-02 2.581605e-02 2.078602e-02 1.569338e-02 1.918950e-02 1.131875e-02 2.930842e+00 8.310627e-02 2.311038e-02 1.497827e-02 1.014211e-02 9.228143e-03 8.411084e-03 5.628944e-03 3.948643e-03 3.733475e-03 3.278323e-03 3.819664e-03 2.540969e-03 3.807454e-01
<GCONST> -3.145387e+01
<MIXTURE> 14 4.104464e-02
<MEAN> 39
 -3.209121e+00 1.862346e+00 6.700661e-01 5.155010e-01 -4.679867e-03 -3.257894e-01 -3.517511e-01 -3.587186e-01 -1.529359e-01 -1.805617e-01 -1.140105e-01 -2.170856e-01 5.387754e+01 -6.448240e-01 -5.488271e-01 -2.457775e-01 -5.558695e-02 -1.154262e-01 -5.026101e-02 -3.987222e-02 1.384557e-01 9.859759e-02 7.850738e-03 8.689469e-02 -3.103041e-02 2.768486e+00 2.761280e-02 -1.353453e-01 -7.357835e-02 -8.795261e-02 -1.394275e-01 -9.432319e-02 -2.208172e-02 3.097559e-02 1.672952e-02 2.152122e-02 4.105805e-03 -1.831310e-03 1.345417e+00
<VARIANCE> 39
 2.534212e+00 1.124516e+00 4.931294e-01 4.155597e-01 3.483597e-01 3.035030e-01 2.568083e-01 2.217192e-01 1.441896e-01 1.432806e-01 1.403621e-01 1.115840e-01 1.686633e+01 6.998735e-01 1.981001e-01 1.006633e-01 7.995665e-02 7.560482e-02 5.594993e-02 3.272843e-02 3.568190e-02 2.677280e-02 1.999032e-02 2.384285e-02 1.431820e-02 3.748271e+00 9.953481e-02 3.859659e-02 1.754841e-02 1.154741e-02 1.033285e-02 7.182248e-03 6.954719e-03 6.261520e-03 4.433644e-03 3.766775e-03 4.162407e-03 2.827004e-03 4.834190e-01
<GCONST> -2.908770e+01
<MIXTURE> 15 5.552876e-02
<MEAN> 39
 1.190488e+00 1.065034e+00 2.197502e-01 -4.756832e-01 -1.496515e+00 -1.673336e+00 -3.967208e-01 -1.188511e+00 -2.962129e-01 4.592159e-01 -8.651128e-01 -7.362573e-02 6.528740e+01 2.253955e-02 2.076063e-01 -2.155546e-02 2.740040e-02 2.780290e-02 -1.989138e-02 3.526098e-02 -5.900900e-02 5.209813e-02 1.407818e-02 -6.758110e-03 -1.633537e-02 -5.748257e-01 -1.517751e-01 -1.054453e-01 1.626980e-02 -2.305769e-02 -1.580495e-02 4.220431e-02 -3.490719e-02 9.208806e-02 -1.790917e-02 -4.248139e-02 2.770657e-02 -8.545622e-04 3.973570e-01
<VARIANCE> 39
 9.865174e-01 1.145470e+00 7.723887e-01 4.827172e-01 5.220410e-01 4.679403e-01 5.380369e-01 3.112129e-01 2.576292e-01 2.520670e-01 2.995652e-01 3.719843e-01 6.469228e+00 1.242162e-01 2.640587e-01 7.138679e-02 4.414261e-02 4.000445e-02 3.893316e-02 5.159192e-02 7.497192e-02 2.100120e-02 3.066434e-02 2.698321e-02 1.684765e-02 2.345799e+00 2.483126e-02 2.099566e-02 1.133176e-02 7.930417e-03 8.298600e-03 6.954236e-03 7.600999e-03 6.084645e-03 3.635013e-03 4.170060e-03 4.677682e-03 3.859557e-03 1.672207e-01
<GCONST> -3.125889e+01
<MIXTURE> 16 5.319169e-02
<MEAN> 39
 -8.811824e+00 2.680068e+00 -1.622868e-01 1.281656e+00 -1.391695e-01 -2.172207e-01 -1.721008e-01 6.144164e-03 4.698905e-02 -4.222168e-01 1.219623e-01 -3.014927e-01 6.182303e+01 -6.822641e-02 -5.815425e-02 -2.542480e-02 -1.022292e-02 1.332140e-02 3.285766e-02 2.774673e-02 2.414924e-02 2.442693e-02 1.883891e-02 7.265313e-03 1.121946e-02 -2.305742e-01 1.109472e-01 -3.467215e-02 -4.595138e-03 -3.610939e-02 -2.952932e-02 -3.342715e-02 -6.089877e-03 -1.587766e-03 2.901658e-03 8.686485e-03 6.932965e-03 4.305131e-03 1.350323e-01
<VARIANCE> 39
 1.279232e+00 9.373584e-01 4.895652e-01 3.431006e-01 2.712261e-01 2.308747e-01 1.744171e-01 1.728284e-01 1.404486e-01 1.126603e-01 1.067551e-01 9.787815e-02 7.785259e+00 7.756744e-02 5.127434e-02 2.806795e-02 2.399950e-02 1.992279e-02 1.793380e-02 1.409395e-02 1.312872e-02 1.249565e-02 1.052418e-02 1.007699e-02 8.780656e-03 4.348562e-01 2.399828e-02 9.024076e-03 5.471970e-03 4.697761e-03 3.868795e-03 3.737836e-03 2.784543e-03 2.541183e-03 2.227260e-03 1.887310e-03 1.966729e-03 1.715139e-03 7.031589e-02
<GCONST> -6.096005e+01
<TRANSP> 5
 0.000000e+00 1.000000e+00 0.000000e+00 0.000000e+00 0.000000e+00
 0.000000e+00 9.929789e-01 7.021059e-03 0.000000e+00 0.000000e+00
 0.000000e+00 0.000000e+00 9.584962e-01 4.150378e-02 0.000000e+00
 0.000000e+00 0.000000e+00 0.000000e+00 9.900700e-01 9.930027e-03
 0.000000e+00 0.000000e+00 0.000000e+00 0.000000e+00 0.000000e+00
<ENDHMM>
~h "m0"
<BEGINHMM>
<NUMSTATES> 5
<STATE> 2
<NUMMIXES> 16
<MIXTURE> 1 1.116476e-01
<MEAN> 39
 -3.168927e+00 1.158935e+00 9.606913e-01 2.019215e-01 6.855208e-02 -8.009880e-01 9.840185e-02 1.025325e+00 6.746985e-02 -5.473458e-02 -1.357090e-01 -4.464394e-01 6.360617e+01 8.213825e-01 4.060141e-01 4.002369e-01 1.558057e-01 3.782091e-02 -2.050722e-02 -4.490036e-02 3.795174e-02 -7.049383e-02 7.491661e-02 -1.015884e-02 2.216279e-03 9.658524e-01 1.385698e-01 1.708169e-02 1.131669e-02 -1.147156e-04 -6.301438e-02 2.259944e-02 -2.701601e-02 -5.300754e-02 -7.759022e-03 1.755630e-03 1.223834e-02 2.256694e-02 4.734948e-01
<VARIANCE> 39
 1.466061e+00 9.988175e-01 7.431411e-01 3.065052e-01 3.806612e-01 2.733369e-01 3.051473e-01 2.612936e-01 2.692712e-01 1.864606e-01 1.722150e-01 1.304401e-01 5.915888e+00 3.611478e-01 9.099127e-02 7.354122e-02 3.622185e-02 5.142393e-02 3.376116e-02 2.965503e-02 2.353653e-02 2.528633e-02 2.885894e-02 1.563234e-02 1.770221e-02 1.751205e+00 4.844858e-02 1.979808e-02 1.344505e-02 6.860039e-03 7.458289e-03 8.072317e-03 5.400580e-03 4.056389e-03 4.889271e-03 4.620812e-03 3.227837e-03 2.578558e-03 3.420233e-01
<GCONST> -3.719872e+01
<MIXTURE> 2 1.458652e-02
<MEAN> 39
 -3.964270e+00 1.308322e+00 1.351729e+00 6.732465e-01 -4.307394e-01 9.125561e-01 -1.489138e-01 5.313789e-02 -3.385336e-01 3.290188e-01 1.627827e-01 -6.315089e-01 7.330303e+01 1.561307e+00 2.480982e-01 -1.126504e-01 -1.426486e-01 -3.435363e-02 -5.133547e-01 6.223812e-03 1.379846e-01 1.260371e-01 -9.846974e-02 -3.966714e-02 9.671264e-02 -1.034172e+00 -1.443649e-01 -6.265467e-02 1.078620e-02 2.563294e-02 -1.571125e-02 2.251021e-02 -8.263746e-03 -6.508796e-03 -8.752555e-03 3.179228e-03 1.013910e-02 5.216911e-03 2.867443e-01
<VARIANCE> 39
 5.448655e-01 2.264834e-01 1.051717e-01 5.412520e-02 7.218507e-02 1.125610e-01 3.668441e-02 1.128699e-01 8.683823e-02 5.084638e-02 1.061018e-01 2.495480e-02 7.822104e-01 2.470621e-01 1.680137e-01 1.048382e-01 5.956719e-02 6.639893e-02 2.108434e-02 3.151688e-02 2.672890e-02 1.163284e-02 1.105941e-02 1.997080e-02 1.391093e-02 8.284348e-01 2.018110e-02 8.711480e-03 1.448077e-03 2.514723e-03 2.312610e-03 1.091746e-03 1.016098e-03 1.635810e-03 6.596390e-04 8.397035e-04 1.051669e-03 1.023308e-03 3.044464e-02
<GCONST> -7.573548e+01
<MIXTURE> 3 6.608161e-02
<MEAN> 39
 -2.578947e+00 2.545236e+00 1.320970e+00 4.375839e-02 6.773569e-01 -2.055026e-01 -1.839228e-01 5.364293e-01 -6.151142e-01 3.224878e-01 -3.521400e-02 -4.221115e-01 6.086847e+01 1.419467e+00 6.797093e-01 2.911874e-01 4.339872e-03 -2.738882e-04 -3.317617e-01 -1.234998e-01 4.634336e-02 -3.697469e-02 -1.641794e-02 8.292009e-03 5.516136e-02 -1.324290e-01 -1.035356e-01 -2.546708e-01 -8.245990e-02 -4.898746e-03 -1.670391e-01 4.617813e-02 1.688835e-02 -1.257428e-02 4.999439e-02 -2.559043e-02 1.280183e-02 -5.231461e-03 1.317145e+00
<VARIANCE> 39
 4.124905e+00 9.508671e-01 4.947437e-01 4.921256e-01 5.538470e-01 2.371316e-01 1.919340e-01 2.200778e-01 2.129605e-01 2.447386e-01 1.154758e-01 9.292603e-02 8.052450e+00 5.658686e-01 1.233167e-01 6.628524e-02 5.515857e-02 9.699509e-02 6.403273e-02 1.824046e-02 2.448487e-02 1.913812e-02 2.371652e-02 1.781898e-02 8.113461e-03 4.735152e+00 4.657267e-02 1.692117e-02 1.069253e-02 9.128013e-03 5.998252e-03 6.317987e-03 3.891921e-03 3.485572e-03 4.125472e-03 3.082039e-03 2.585718e-03 1.714729e-03 2.230934e-01
<GCONST> -3.788781e+01
<MIXTURE> 4 4.259147e-02
<MEAN> 39
 -6.650980e+00 -4.250025e-01 2.979763e-01 2.122409e-01 -3.004263e-01 1.067378e+00 9.830938e-02 3.310492e-01 -2.880186e-01 3.770376e-01 -7.395491e-02 -6.934580e-01 7.052873e+01 1.025936e+00 4.865305e-01 1.230884e-01 -2.283462e-02 1.312597e-01 -4.730003e-01 -7.875700e-03 6.795612e-02 6.924691e-02 -1.492905e-01 -1.835043e-02 1.134753e-01 -2.096092e+00 1.715688e-02 -3.321921e-02 1.300240e-02 2.557738e-03 -4.183101e-02 1.316719e-02 -6.444315e-03 3.636917e-03 5.924800e-03 6.443689e-03 7.722309e-03 -5.261820e-03 5.276561e-01
<VARIANCE> 39
 2.156076e-01 9.414095e-02 5.889254e-02 3.186588e-02 3.395837e-02 1.172349e-01 3.694569e-02 3.926024e-02 3.699233e-02 1.764424e-02 3.140110e-02 2.796626e-02 3.336254e-01 4.148646e-01 1.845340e-01 7.649604e-02 3.901660e-02 6.933093e-02 3.221005e-02 2.066652e-02 2.541850e-02 2.680768e-02 2.077482e-02 1.415797e-02 9.115104e-03 8.132275e-01 2.139165e-02 8.594505e-03 3.828713e-03 2.273382e-03 2.786408e-03 2.064627e-03 1.359949e-03 1.149721e-03 1.158484e-03 9.963562e-04 5.114276e-04 6.000700e-04 4.637394e-02
<GCONST> -8.215241e+01
<MIXTURE> 5 1.123632e-01
<MEAN> 39
 -4.220361e+00 6.524800e-01 -4.670607e-01 -2.468820e-01 -7.090072e-01 -1.134032e+00 -1.553672e-01 5.224010e-01 4.766804e-01 -4.626438e-01 8.542258e-02 -1.341784e-01 6.876114e+01 4.243003e-01 1.181164e-01 9.401136e-02 -4.195937e-02 1.975852e-03 -2.898038e-01 -3.901615e-02 1.224871e-01 1.080821e-01 -3.022472e-02 2.550132e-02 1.696157e-02 1.287781e+00 6.026268e-02 -1.634866e-02 1.697434e-01 4.555990e-02 5.840418e-02 1.494994e-01 1.128058e-02 -2.014724e-03 -7.075384e-02 7.819556e-02 -1.736015e-02 -4.824024e-02 1.186445e-01
<VARIANCE> 39
 2.168880e+00 1.150489e+00 9.018222e-01 4.368219e-01 4.501006e-01 3.515189e-01 1.469102e-01 1.556316e-01 1.804425e-01 1.824114e-01 1.250960e-01 1.636920e-01 2.406192e+01 4.754913e-01 1.553517e-01 1.270884e-01 4.700219e-02 5.282245e-02 6.408114e-02 2.251536e-02 1.696147e-02 2.248149e-02 2.801910e-02 1.721066e-02 1.986820e-02 4.270419e+00 8.530350e-02 1.720061e-02 2.113142e-02 8.721909e-03 7.460399e-03 8.071194e-03 4.405423e-03 3.619609e-03 3.854244e-03 5.527145e-03 3.479047e-03 3.231249e-03 4.982497e-01
<GCONST> -3.200373e+01
<MIXTURE> 6 9.152802e-02
<MEAN> 39
 -3.401508e+00 1.681507e+00 3.305478e-01 1.676672e-01 1.410019e-01 -2.055666e-01 -1.196738e-02 1.062867e-01 2.139157e-02 -1.616121e-01 -6.202727e-02 -2.037603e-01 5.778493e+01 7.367705e-01 2.931820e-01 -9.592597e-02 -5.758736e-02 -4.102293e-02 -5.143603e-01 -5.979890e-02 5.521768e-02 1.702877e-01 -1.539817e-01 1.419667e-03 9.137375e-02 -5.923821e-01 -2.201005e-01 -1.916313e-01 2.267192e-02 7.925838e-03 -5.041703e-02 6.226711e-02 6.100394e-03 4.502221e-02 -8.462492e-03 3.377817e-02 3.153432e-03 -3.959747e-02 1.520807e+00
<VARIANCE> 39
 1.210309e+00 4.714158e-01 2.135773e-01 2.909057e-01 2.126678e-01 2.109836e-01 1.734211e-01 1.674870e-01 1.363539e-01 9.283505e-02 1.001850e-01 9.210840e-02 4.615233e+00 5.608947e-01 2.113102e-01 7.335811e-02 3.443394e-02 4.355666e-02 4.377582e-02 1.587661e-02 2.266650e-02 1.926553e-02 1.622924e-02 1.490541e-02 1.451996e-02 4.451529e+00 5.273960e-02 1.396066e-02 8.790693e-03 6.021381e-03 5.401063e-03 5.854044e-03 4.139445e-03 3.839230e-03 3.280240e-03 2.971624e-03 3.065488e-03 2.220377e-03 1.600385e-01
<GCONST> -4.689253e+01
<MIXTURE> 7 3.032306e-02
<MEAN> 39
 -6.702413e+00 -5.291735e-01 2.675244e-01 1.369077e-01 -3.543859e-01 1.291061e+00 1.344768e-01 2.780279e-01 -3.549130e-01 4.273009e-01 1.111336e-02 -7.553777e-01 7.000881e+01 1.102297e+00 6.118475e-01 4.644893e-02 6.284379e-02 1.101317e-01 -4.625402e-01 -5.561951e-02 -8.429258e-02 1.181632e-01 -1.986663e-01 -1.648366e-02 1.712190e-01 -3.359686e+00 -1.468831e-01 -1.437958e-01 -5.725817e-02 -5.940410e-02 -5.658563e-02 -3.982329e-02 -1.407029e-02 4.058693e-02 1.201303e-02 1.281188e-02 1.420393e-02 -7.827759e-03 1.317125e+00
<VARIANCE> 39
 1.546062e-01 2.967096e-02 1.706265e-02 1.099358e-02 1.207523e-02 5.427177e-02 1.285009e-02 1.608393e-02 1.144092e-02 9.621336e-03 2.224927e-02 1.852084e-02 3.336254e-01 1.112215e-01 8.635964e-02 1.520122e-02 2.007324e-02 1.167567e-02 1.940068e-02 1.063956e-02 1.153326e-02 8.808024e-03 6.064191e-03 5.313047e-03 5.475447e-03 8.840546e-01 3.324730e-02 1.047460e-02 6.636474e-03 4.930639e-03 1.904587e-03 2.044559e-03 1.601583e-03 1.763325e-03 1.299600e-03 1.186318e-03 1.208992e-03 1.062533e-03 2.237552e-01
<GCONST> -9.862227e+01
<MIXTURE> 8 2.550436e-02
<MEAN> 39
 -7.723830e+00 -1.777932e-01 5.075202e-01 4.987442e-01 -5.200158e-02 5.722163e-01 3.119524e-01 6.811450e-01 -8.863825e-02 2.375841e-02 -5.052194e-01 -5.343285e-01 7.125983e+01 1.332056e+00 4.455099e-01 -4.100524e-02 -7.624232e-02 2.994441e-03 -2.941060e-01 -9.232222e-02 -9.621480e-02 7.507312e-02 -5.241083e-02 1.272443e-01 8.486317e-02 -3.157271e+00 -1.068667e-01 -6.266598e-02 4.656505e-03 -1.403685e-02 -2.515855e-02 -2.294653e-02 -4.148032e-03 3.174899e-02 2.516532e-04 -9.860994e-03 -8.058611e-03 -9.244197e-03 7.734948e-01
<VARIANCE> 39
 2.184699e-01 5.057029e-02 3.232597e-02 1.583091e-02 1.563074e-02 6.268740e-02 1.546561e-02 1.635955e-02 9.915841e-03 2.282275e-02 1.109208e-02 3.217151e-02 3.336254e-01 2.245053e-01 1.081128e-01 4.221779e-02 1.788117e-02 3.643382e-02 2.092277e-02 1.029604e-02 2.880626e-02 1.725418e-02 8.896922e-03 1.002445e-02 1.245937e-02 1.341244e+00 2.999793e-02 1.099055e-02 7.928185e-03 4.552014e-03 3.185989e-03 2.504624e-03 1.236215e-03 1.600872e-03 2.063527e-03 1.147951e-03 7.184854e-04 9.273001e-04 2.791053e-01
<GCONST> -8.830083e+01
<MIXTURE> 9 1.368117e-01
<MEAN> 39
 -5.827780e+00 2.824384e-01 3.766701e-01 -1.183437e-01 -1.687074e-02 -7.507519e-01 2.679578e-01 4.854933e-01 4.375096e-01 -4.728235e-01 -2.075154e-01 -1.378786e-01 6.715376e+01 -3.130741e-01 6.231732e-02 -1.169661e-02 -3.951030e-02 9.357464e-03 -3.980525e-02 3.214103e-03 9.307737e-03 2.386796e-02 9.735304e-03 -1.428639e-02 2.443953e-03 7.790771e-01 3.552547e-02 2.319823e-02 2.574495e-03 2.125973e-02 -3.107119e-03 5.740888e-02 -8.741508e-03 -2.605150e-03 -2.485153e-02 3.622539e-02 9.029313e-03 -1.991114e-02 5.999223e-02
<VARIANCE> 39
 7.249510e+00 5.279062e+00 8.692084e-01 4.583143e-01 7.323141e-01 3.281489e-01 1.896463e-01 2.544873e-01 2.050357e-01 1.449621e-01 2.538473e-01 1.205868e-01 9.167598e+00 1.324933e-01 1.179360e-01 4.078024e-02 2.731690e-02 3.219578e-02 3.341388e-02 1.733378e-02 1.488932e-02 1.425917e-02 1.580491e-02 1.193674e-02 1.163773e-02 7.754329e-01 5.061501e-02 3.282527e-02 1.029086e-02 5.463977e-03 7.766528e-03 8.109741e-03 3.549652e-03 3.041350e-03 2.512917e-03 2.881422e-03 2.742376e-03 2.035914e-03 2.092261e-01
<GCONST> -4.122232e+01
<MIXTURE> 10 9.181219e-02
<MEAN> 39
 -3.276662e+00 2.086416e-01 3.475071e-01 1.618326e-01 6.280340e-02 -6.492919e-01 1.920254e-01 9.089639e-01 1.815898e-01 -2.476059e-01 -2.938827e-01 -4.747747e-01 6.210098e+01 7.744029e-01 5.089953e-02 1.077705e-01 -1.023238e-02 3.027210e-02 -3.582337e-01 4.587364e-03 1.712324e-01 1.135316e-01 -8.940402e-02 -5.601502e-02 5.343639e-02 -1.627558e-01 -1.386383e-01 -3.571659e-02 2.454337e-02 1.114399e-04 -5.188700e-02 1.189103e-01 -1.552813e-02 -4.215509e-02 -3.364202e-02 4.987173e-02 2.649323e-02 -8.874994e-03 1.174435e+00
<VARIANCE> 39
 1.255874e+00 1.303783e+00 4.251508e-01 3.161164e-01 4.554065e-01 2.197506e-01 2.136294e-01 2.668483e-01 2.033016e-01 1.690097e-01 1.776367e-01 1.505668e-01 6.019698e+00 4.410693e-01 2.444176e-01 5.911867e-02 2.471925e-02 3.883005e-02 6.594410e-02 2.105195e-02 2.396763e-02 2.255690e-02 1.906022e-02 1.609084e-02 1.199431e-02 3.111624e+00 6.880518e-02 1.344592e-02 7.198807e-03 6.350086e-03 6.821325e-03 5.262698e-03 3.804951e-03 3.568571e-03 3.135742e-03 3.439133e-03 3.060050e-03 2.545901e-03 1.272053e-01
<GCONST> -4.136745e+01
<MIXTURE> 11 7.973521e-02
<MEAN> 39
 -2.732962e+00 1.892393e+00 6.315547e-01 4.299103e-01 1.907665e-01 -2.940004e-02 -1.011217e-01 -2.121834e-01 -8.663099e-02 -1.520466e-01 -1.214144e-01 -1.392335e-01 5.595909e+01 7.648395e-01 8.846601e-02 -1.878824e-01 -1.504021e-01 -3.177243e-02 -5.362013e-01 -1.083378e-01 -9.740163e-05 1.312532e-01 -1.653605e-01 2.276819e-02 1.603869e-01 2.887819e-01 -4.413103e-01 -2.880157e-01 -7.990432e-02 -7.588454e-02 -9.204467e-02 2.743052e-02 2.186030e-02 7.729787e-02 1.367121e-02 3.480580e-02 3.390787e-02 -3.096858e-02 2.287400e+00
<VARIANCE> 39
 2.942274e-01 1.730113e-01 1.362170e-01 1.521710e-01 1.017576e-01 1.000031e-01 8.796427e-02 9.506910e-02 9.468301e-02 8.180187e-02 7.060225e-02 7.638557e-02 2.575981e+00 3.501369e-01 1.454484e-01 8.520909e-02 7.184757e-02 3.806761e-02 3.078440e-02 1.740655e-02 2.113261e-02 1.234339e-02 1.311662e-02 1.477576e-02 9.459639e-03 5.478935e+00 6.574473e-02 1.702680e-02 1.083405e-02 7.940067e-03 3.973712e-03 6.141172e-03 3.598910e-03 3.014074e-03 2.644357e-03 3.006398e-03 2.492333e-03 2.224346e-03 2.591089e-01
<GCONST> -5.572283e+01
<MIXTURE> 12 1.015483e-01
<MEAN> 39
 1.674767e+00 3.112605e+00 8.280773e-01 -1.140536e-01 -5.470877e-01 -4.122828e-01 -1.738443e-01 2.089821e-01 -3.684020e-01 1.034103e-02 1.357133e-01 -2.750531e-01 6.762051e+01 1.160867e+00 -6.696004e-02 -9.261303e-02 -1.014634e-01 -2.591734e-01 -2.205245e-01 -8.867446e-02 -2.858081e-02 3.849862e-02 -3.938300e-02 6.674572e-02 6.889947e-02 1.803151e+00 -4.722473e-01 -3.052067e-01 -2.475938e-02 3.212333e-02 -9.995966e-03 6.171465e-02 1.158330e-02 2.470080e-02 3.139912e-02 2.052864e-02 -1.071230e-02 -2.192154e-02 4.728685e-01
<VARIANCE> 39
 2.482484e+00 1.094394e+00 1.215479e+00 7.577137e-01 7.804270e-01 2.461804e-01 3.747705e-01 2.308816e-01 2.644862e-01 2.238142e-01 1.783086e-01 1.505308e-01 9.391197e+00 5.611203e-01 2.390326e-01 1.027557e-01 7.471249e-02 5.098157e-02 6.182181e-02 4.655284e-02 2.278966e-02 2.968870e-02 1.916725e-02 2.047167e-02 1.359406e-02 2.823413e+00 4.401521e-02 2.222993e-02 2.118728e-02 9.568807e-03 1.262531e-02 8.049998e-03 8.418806e-03 5.093927e-03 5.745396e-03 3.945067e-03 5.010884e-03 2.555438e-03 3.878538e-01
<GCONST> -2.740654e+01
<MIXTURE> 13 3.360258e-02
<MEAN> 39
 -6.281289e+00 -8.018681e-01 -4.210348e-02 1.344519e-01 -6.162307e-01 1.411066e+00 2.784316e-01 3.380280e-03 -3.040095e-01 1.432391e-01 3.595464e-01 -6.434886e-01 7.041274e+01 7.585415e-01 5.870151e-01 1.467784e-01 -5.671034e-02 1.711947e-01 -6.053036e-01 -5.936179e-02 1.830641e-01 9.928744e-02 -9.833592e-02 -1.345065e-01 1.091067e-01 -2.327424e+00 -3.527286e-02 -3.716828e-02 3.431017e-03 7.075801e-03 -2.916291e-02 1.461492e-02 -7.279234e-03 -7.211559e-03 3.429006e-03 1.464910e-02 1.301406e-02 -7.058340e-03 5.239005e-01
<VARIANCE> 39
 1.546062e-01 3.702755e-02 3.256821e-02 2.048098e-02 1.897948e-02 2.550845e-02 3.859076e-02 2.645618e-02 2.137563e-02 4.207085e-02 2.023176e-02 1.975640e-02 3.336254e-01 4.036437e-01 1.496909e-01 8.230250e-02 2.685441e-02 4.751305e-02 2.246793e-02 1.696082e-02 2.446741e-02 1.986235e-02 2.165479e-02 1.047056e-02 1.060456e-02 1.376596e+00 2.473078e-02 6.768304e-03 5.671198e-03 3.107126e-03 3.761645e-03 2.052717e-03 1.453567e-03 1.093856e-03 1.089012e-03 1.180390e-03 6.527879e-04 8.679472e-04 1.115961e-01
<GCONST> -8.624908e+01
<MIXTURE> 14 2.138070e-02
<MEAN> 39
 -7.499468e+00 -4.251598e-01 3.093760e-01 2.599344e-01 -2.227490e-01 7.180444e-01 1.828151e-01 5.433844e-01 -1.298813e-01 2.984101e-01 -2.665663e-01 -5.643451e-01 7.052171e+01 1.375896e+00 4.574504e-01 -2.775682e-03 -7.368818e-02 1.213623e-01 -2.427376e-01 -7.987668e-02 -8.033118e-02 4.923961e-04 -1.056805e-01 1.993737e-02 5.831873e-02 -3.172427e+00 -7.020120e-02 -6.061578e-02 -3.340911e-02 -1.955734e-02 -5.007462e-02 -3.112473e-02 3.266492e-03 2.757890e-02 2.902737e-02 -2.683579e-03 7.093612e-03 6.122275e-03 9.663380e-01
<VARIANCE> 39
 1.546062e-01 3.873926e-02 1.919699e-02 1.014579e-02 8.729114e-03 3.830748e-02 2.178140e-02 2.804997e-02 2.173786e-02 1.900403e-02 1.712545e-02 1.570429e-02 3.336254e-01 5.951502e-02 1.150302e-01 3.359511e-02 2.752427e-02 2.178032e-02 1.693154e-02 1.591718e-02 2.565119e-02 1.421924e-02 1.011913e-02 1.219018e-02 1.137976e-02 1.332778e+00 2.733221e-02 1.047190e-02 6.273033e-03 2.968514e-03 3.767522e-03 2.910989e-03 1.249211e-03 1.935338e-03 1.370341e-03 1.902466e-03 1.232246e-03 7.961647e-04 3.087150e-01
<GCONST> -9.089027e+01
<MIXTURE> 15 1.981265e-02
<MEAN> 39
 -6.392822e+00 -7.292925e-01 4.402544e-02 4.087571e-02 -6.251542e-01 1.411861e+00 1.415458e-01 2.229365e-02 -3.926292e-01 2.763105e-01 2.804162e-01 -7.235077e-01 7.002276e+01 1.019906e+00 7.221131e-01 1.212690e-01 9.027950e-02 2.225741e-01 -4.819270e-01 -8.703440e-02 -2.651094e-02 1.091812e-01 -1.300945e-01 -1.224936e-01 1.860044e-01 -4.025985e+00 -1.130787e-01 -1.935434e-01 -9.050905e-02 -5.333714e-02 -7.028488e-02 -2.373362e-02 2.147447e-03 4.125525e-02 1.894585e-02 -7.406337e-03 2.990719e-02 -1.435039e-02 1.391257e+00
<VARIANCE> 39
 1.546062e-01 7.758039e-02 5.866519e-02 1.944287e-02 1.652879e-02 3.647154e-02 4.524996e-02 1.646278e-02 2.592880e-02 3.276441e-02 4.025552e-02 1.357380e-02 3.336254e-01 2.300587e-02 2.005467e-02 1.538029e-02 1.302331e-02 9.745381e-03 8.387742e-03 1.295002e-02 7.159254e-03 8.485259e-03 7.896472e-03 6.855606e-03 4.817986e-03 3.937374e-01 2.157135e-02 9.297965e-03 9.829883e-03 3.752062e-03 3.526448e-03 2.298338e-03 2.566474e-03 1.512110e-03 1.158694e-03 1.348305e-03 9.103480e-04 9.168455e-04 1.799152e-01
<GCONST> -9.756044e+01
<MIXTURE> 16 2.066742e-02
<MEAN> 39
 -4.206728e+00 8.250667e-01 8.637281e-01 3.726249e-01 -3.392062e-01 5.948406e-01 4.450266e-02 4.745581e-01 -8.241756e-02 1.756821e-01 -2.414053e-01 -6.554355e-01 7.410633e+01 1.659300e+00 -5.420876e-02 -7.042862e-02 -2.728892e-01 5.461548e-03 -2.911635e-01 -2.183538e-02 1.000093e-01 3.800380e-02 -5.444216e-02 6.497535e-02 4.984570e-02 -6.910687e-01 -1.076916e-01 -7.505566e-03 -1.028882e-02 -5.764151e-03 -1.648711e-02 9.914850e-03 8.431671e-04 -8.403285e-03 1.998979e-03 2.915931e-03 3.782928e-04 -1.615635e-03 2.588980e-01
<VARIANCE> 39
 4.727532e+00 5.371428e-01 2.211227e-01 2.685888e-01 1.633102e-01 3.545518e-01 6.986058e-02 7.040959e-02 6.268487e-02 9.273911e-02 5.710352e-02 7.348882e-02 5.867888e+00 4.105875e-01 3.388173e-01 5.158172e-02 2.283587e-02 2.999736e-02 4.374718e-02 2.263895e-02 2.211105e-02 1.776084e-02 1.707688e-02 1.545961e-02 9.086829e-03 1.039270e+00 4.739977e-03 1.001769e-02 2.038027e-03 1.294676e-03 1.881256e-03 2.076991e-03 1.231591e-03 9.295825e-04 1.230589e-03 1.174661e-03 8.753522e-04 5.332606e-04 4.331000e-02
<GCONST> -6.721180e+01
<STATE> 3
<NUMMIXES> 16
<MIXTURE> 1 7.906135e-02
<MEAN> 39
 1.560184e+00 9.313279e-02 1.491113e+00 9.831022e-02 -9.735438e-01 -1.678828e+00 -7.458855e-01 1.172772e+00 1.227106e-01 1.903012e-01 -1.514812e-01 -3.094286e-01 7.469559e+01 -2.104139e-01 2.036296e-01 4.525359e-02 6.627838e-02 3.244891e-02 1.713845e-02 3.789746e-02 -6.500307e-02 6.228397e-03 -1.935320e-02 4.543606e-02 4.012312e-02 -5.996649e-01 -3.094145e-01 1.699920e-01 -3.971010e-02 8.610021e-03 7.476774e-02 9.270077e-02 5.775784e-02 -8.365311e-02 -2.968229e-03 -2.449474e-02 1.828497e-02 1.245308e-02 -5.131954e-01
<VARIANCE> 39
 9.283245e-01 1.059088e+00 8.139330e-01 4.857377e-01 3.531593e-01 3.693071e-01 3.670088e-01 3.129040e-01 1.903703e-01 2.931494e-01 1.617183e-01 1.715593e-01 8.128596e+00 3.957589e-01 1.871359e-01 1.025803e-01 5.669460e-02 5.725644e-02 4.681562e-02 3.130405e-02 4.453813e-02 3.077236e-02 2.382253e-02 1.909512e-02 1.755992e-02 1.745434e+00 9.239399e-02 1.622299e-02 1.243586e-02 8.142592e-03 7.174296e-03 6.381651e-03 5.412569e-03 4.231473e-03 4.783472e-03 4.897611e-03 3.349727e-03 2.656347e-03 2.347727e-01
<GCONST> -3.287010e+01
<MIXTURE> 2 9.875725e-02
<MEAN> 39
 2.090303e+00 2.283386e+00 9.065956e-01 -5.379576e-01 -5.443118e-01 -4.420057e-01 -3.914135e-01 1.901651e-01 -6.673787e-01 4.398634e-01 2.242805e-01 -3.475966e-01 7.046901e+01 -1.121663e-01 1.319060e-01 2.454781e-02 3.999663e-02 5.201431e-02 1.317363e-02 2.188528e-02 -3.732659e-02 1.103003e-02 1.715008e-03 -7.912387e-03 2.539203e-02 -4.424163e-01 -1.404012e-01 -8.125009e-02 2.316000e-03 3.221749e-02 -1.192987e-03 -1.451928e-02 4.809468e-03 3.596213e-02 5.845380e-02 -2.656833e-02 -2.067298e-02 -1.141283e-03 1.145091e-01
<VARIANCE> 39
 9.750993e-01 9.104207e-01 6.180253e-01 6.681505e-01 4.864285e-01 2.964763e-01 3.104931e-01 2.518148e-01 2.749633e-01 2.539939e-01 2.481500e-01 1.410624e-01 7.354807e+00 1.632451e-01 1.459728e-01 4.978387e-02 5.817218e-02 3.810270e-02 3.409658e-02 2.343977e-02 2.938470e-02 3.734316e-02 2.391227e-02 1.753254e-02 1.321657e-02 1.393919e+00 3.954405e-02 1.601758e-02 9.853495e-03 7.130016e-03 7.826127e-03 5.101047e-03 4.145898e-03 3.986856e-03 4.229350e-03 3.938648e-03 3.716903e-03 2.388958e-03 1.284069e-01
<GCONST> -3.915034e+01
<MIXTURE> 3 6.367572e-02
<MEAN> 39
 -6.267511e+00 -1.702227e-02 2.550405e-01 -9.949216e-02 -3.471672e-01 -9.894286e-01 -1.017487e-01 4.521747e-01 5.621533e-01 -1.812906e-01 3.875638e-02 4.899581e-03 7.254599e+01 9.457467e-01 1.346591e-01 2.243527e-01 1.396865e-01 6.912412e-02 5.398371e-02 -1.503070e-02 1.662720e-02 -5.655180e-02 7.131167e-02 -3.534971e-02 -5.683253e-02 -2.006731e+00 4.956919e-01 1.628300e-01 9.770412e-02 4.670343e-02 3.316616e-02 4.485284e-02 -6.168175e-03 -4.196967e-03 -5.856474e-02 1.101582e-02 -1.265119e-02 -2.859202e-02 -5.326723e-01
<VARIANCE> 39
 6.515985e+00 1.688487e+00 1.433466e+00 7.002658e-01 4.660869e-01 3.775827e-01 2.991746e-01 2.477096e-01 1.978896e-01 2.079186e-01 1.601932e-01 1.456713e-01 1.259636e+01 7.575067e-01 1.707867e-01 1.276227e-01 7.877266e-02 4.555644e-02 4.149462e-02 2.870478e-02 2.992470e-02 2.282708e-02 1.890598e-02 1.652790e-02 1.445773e-02 1.945427e+00 1.328641e-01 2.502331e-02 1.941692e-02 1.249919e-02 9.017909e-03 7.209118e-03 5.643571e-03 4.856860e-03 4.106010e-03 4.189562e-03 3.278641e-03 3.051995e-03 6.916022e-01
<GCONST> -2.710016e+01
<MIXTURE> 4 3.798043e-02
<MEAN> 39
 4.557880e-02 3.252355e+00 1.229239e+00 5.376229e-01 -4.511471e-02 -4.429270e-01 -2.519853e-01 -9.653178e-02 -2.476302e-02 4.328114e-02 9.326450e-02 -8.248899e-02 6.179427e+01 -6.165328e-01 2.147900e-01 3.012740e-02 1.603949e-01 2.496886e-01 2.570425e-01 6.734849e-02 -1.016982e-01 1.298844e-03 -7.277344e-02 -6.886917e-02 6.818793e-03 -2.181019e+00 -1.167335e-01 -3.043469e-01 -2.697873e-02 -6.028617e-02 -5.438011e-02 -5.579015e-02 -1.355948e-03 7.032729e-02 2.229206e-03 -7.199716e-03 -8.797952e-03 -1.736061e-02 1.033472e+00
<VARIANCE> 39
 2.128866e+00 5.762924e-01 4.592596e-01 3.548496e-01 2.583523e-01 2.726353e-01 1.911566e-01 1.927712e-01 1.734879e-01 1.444942e-01 1.302118e-01 1.027479e-01 9.705233e+00 2.612377e-01 1.623743e-01 8.980270e-02 5.689928e-02 3.256753e-02 4.614730e-02 2.336859e-02 2.696848e-02 2.500673e-02 1.920536e-02 1.488826e-02 1.132951e-02 1.821308e+00 5.735199e-02 2.212405e-02 1.312409e-02 9.285253e-03 6.960364e-03 6.894595e-03 4.199054e-03 4.798314e-03 3.553810e-03 3.604487e-03 3.213339e-03 2.391971e-03 4.344733e-01
<GCONST> -3.996403e+01
<MIXTURE> 5 6.918506e-02
<MEAN> 39
 -3.391994e+00 7.441277e-01 8.466501e-01 3.893281e-01 1.746511e-01 -5.526586e-01 3.813915e-02 5.301303e-01 2.268021e-01 -7.183642e-02 -1.500342e-01 -2.595676e-01 6.655215e+01 1.576303e+00 3.248518e-01 2.522665e-01 3.104171e-02 -5.336200e-02 -1.197494e-02 -6.751966e-02 2.902490e-02 -1.268558e-01 7.091206e-02 -7.377886e-03 -6.161271e-02 -2.941319e-01 9.302572e-02 -2.212552e-02 -1.958315e-02 -7.692355e-02 -9.235273e-02 -4.799064e-02 -3.824613e-02 -1.479696e-03 -4.179768e-03 -3.893570e-03 2.326688e-02 1.113151e-02 9.157470e-01
<VARIANCE> 39
 4.796752e+00 2.046508e+00 1.172481e+00 7.021470e-01 3.881615e-01 4.350018e-01 2.895244e-01 3.058645e-01 2.499663e-01 2.138335e-01 1.657379e-01 1.428732e-01 1.151800e+01 7.335777e-01 1.482614e-01 1.152132e-01 7.357761e-02 5.503328e-02 5.125817e-02 3.199102e-02 3.071024e-02 2.417717e-02 2.170270e-02 1.718600e-02 1.563707e-02 3.731579e+00 8.114684e-02 2.997551e-02 1.574552e-02 1.051895e-02 7.221157e-03 5.990196e-03 5.022666e-03 4.665459e-03 4.436538e-03 3.598302e-03 2.929387e-03 2.626331e-03 3.283711e-01
<GCONST> -2.827534e+01
<MIXTURE> 6 4.199360e-02
<MEAN> 39
 -5.517272e+00 -2.517700e-01 -5.044646e-01 -6.928692e-01 -7.073917e-01 -1.236590e+00 -1.655526e-01 3.700447e-01 3.838230e-01 -2.987964e-01 1.163336e-01 3.251832e-02 7.793095e+01 -4.231617e-01 -2.396598e-01 -6.667566e-02 -1.468233e-01 -1.552499e-01 -1.990971e-01 -3.269719e-02 1.046250e-01 9.177574e-02 2.754221e-02 2.900779e-02 4.086078e-02 2.620079e+00 5.052451e-01 2.521943e-01 2.249925e-01 1.506902e-01 8.725665e-02 9.250969e-02 -1.187785e-03 -1.003324e-02 -4.323458e-02 3.598937e-02 -2.931783e-02 -3.344002e-02 -1.740689e+00
<VARIANCE> 39
 4.253961e+00 1.502283e+00 1.146832e+00 6.914440e-01 4.149563e-01 3.746749e-01 3.024750e-01 2.238403e-01 1.878142e-01 1.984716e-01 1.334590e-01 1.313832e-01 9.563220e+00 9.767068e-01 1.823889e-01 1.185689e-01 7.454247e-02 4.436429e-02 4.202459e-02 2.703797e-02 2.418234e-02 1.940295e-02 1.917454e-02 1.382949e-02 1.398990e-02 4.588406e+00 1.215059e-01 3.340152e-02 1.969372e-02 1.597817e-02 1.086663e-02 9.982193e-03 6.642886e-03 4.928411e-03 4.707826e-03 4.455165e-03 3.297693e-03 3.360079e-03 4.042059e-01
<GCONST> -2.743879e+01
<MIXTURE> 7 9.937037e-02
<MEAN> 39
 2.461962e+00 -3.697781e-01 3.211631e-01 -6.938547e-01 -7.408860e-01 -7.226021e-01 -3.597884e-01 8.469220e-01 1.830076e-01 1.438361e-01 -9.914488e-02 -5.475322e-01 7.658111e+01 1.161423e-03 8.819551e-03 3.083230e-02 2.403044e-02 -8.141897e-03 -1.959541e-02 -6.965321e-03 1.336549e-02 -2.232516e-02 7.229126e-03 -2.001109e-03 1.267789e-02 -1.574082e-01 -3.974808e-02 5.825602e-02 3.154629e-02 2.328312e-02 8.097490e-04 -1.330242e-02 -2.273977e-03 -6.798042e-03 -1.447121e-02 1.159952e-03 1.157149e-02 1.058890e-02 -1.521249e-01
<VARIANCE> 39
 9.094872e-01 1.086606e+00 6.148030e-01 8.712938e-01 3.384242e-01 7.360055e-01 3.545446e-01 3.557189e-01 2.406535e-01 2.354593e-01 2.342697e-01 1.496672e-01 5.652516e+00 4.107078e-02 4.647575e-02 3.719348e-02 3.453384e-02 1.968227e-02 3.148072e-02 1.620595e-02 2.105370e-02 1.370985e-02 1.020858e-02 1.183276e-02 9.845128e-03 2.129398e-01 8.723911e-03 7.325180e-03 4.909436e-03 4.938336e-03 3.520528e-03 4.105142e-03 2.799730e-03 3.152325e-03 2.436815e-03 1.795710e-03 2.040324e-03 1.800870e-03 4.039565e-02
<GCONST> -5.580579e+01
<MIXTURE> 8 2.538366e-02
<MEAN> 39
 -1.791353e+00 2.942139e+00 1.440055e+00 8.289096e-01 3.935476e-01 -6.864802e-02 -9.798053e-02 -7.237625e-02 -5.919296e-02 -1.278484e-01 -8.328965e-02 -1.597435e-01 6.054160e+01 -9.500463e-01 -6.754245e-01 -2.498503e-01 -1.149082e-01 -2.425821e-03 -5.035486e-02 6.609140e-02 9.251085e-02 9.008729e-02 -9.071949e-02 -6.168528e-03 3.946600e-03 1.958131e+00 -9.818690e-02 -2.406894e-01 -8.793892e-02 -1.215387e-01 -1.312729e-01 -1.441120e-01 -2.522936e-02 6.402721e-02 3.073775e-02 1.207428e-02 2.771853e-02 1.093115e-02 1.712609e+00
<VARIANCE> 39
 3.978226e+00 8.861414e-01 5.183543e-01 4.187450e-01 3.063968e-01 2.948173e-01 2.026415e-01 1.736366e-01 1.454626e-01 1.312627e-01 1.108323e-01 9.519184e-02 1.110133e+01 4.951305e-01 1.530253e-01 8.933390e-02 7.320005e-02 5.091662e-02 4.998142e-02 2.465416e-02 2.172214e-02 2.470809e-02 2.206922e-02 1.509503e-02 1.284104e-02 3.227724e+00 1.182552e-01 2.717385e-02 1.933301e-02 1.182124e-02 8.694352e-03 7.611127e-03 5.184291e-03 5.059191e-03 4.638876e-03 3.782265e-03 3.094335e-03 2.434280e-03 4.644207e-01
<GCONST> -3.426165e+01
<MIXTURE> 9 7.305226e-02
<MEAN> 39
 2.373390e+00 1.110488e-02 1.337486e-01 -1.219453e+00 -6.611679e-01 -4.273396e-01 -2.679189e-01 5.941419e-01 9.683314e-02 2.362145e-01 1.799996e-01 -6.309215e-01 7.613914e+01 1.629753e-01 -1.193930e-01 -3.865751e-02 -9.435039e-02 -3.561885e-02 2.690062e-02 1.734570e-03 1.781460e-02 -7.887754e-03 1.940753e-02 6.835105e-03 -1.306235e-02 2.929714e-01 -2.992773e-01 8.842447e-02 3.180429e-02 9.739342e-02 4.321033e-02 -1.539176e-02 1.439450e-02 -1.787062e-02 2.761860e-03 -2.308102e-02 -1.777582e-02 3.309391e-02 -5.158349e-01
<VARIANCE> 39
 7.556171e-01 1.223171e+00 3.992947e-01 8.295811e-01 3.773803e-01 4.740096e-01 3.602607e-01 3.310653e-01 2.629136e-01 2.428442e-01 2.326675e-01 1.397974e-01 5.799029e+00 3.142290e-01 1.689375e-01 4.592977e-02 1.006745e-01 4.089500e-02 4.415015e-02 2.798498e-02 2.884687e-02 2.653947e-02 1.489610e-02 2.327382e-02 1.501966e-02 1.740591e+00 6.106262e-02 2.081576e-02 8.447795e-03 9.336472e-03 6.759793e-03 5.744182e-03 5.187045e-03 4.514256e-03 4.025331e-03 3.257469e-03 3.025878e-03 2.498844e-03 1.573661e-01
<GCONST> -3.658225e+01
<MIXTURE> 10 8.094380e-02
<MEAN> 39
 -1.772838e+00 1.952876e+00 1.717304e+00 5.483285e-01 -3.284676e-01 -1.229747e+00 -2.704763e-01 3.548451e-01 3.221188e-01 -1.015870e-01 1.227037e-01 -3.945570e-02 7.099448e+01 -1.176385e+00 2.660480e-01 -9.062428e-02 1.048724e-01 2.638200e-01 1.667209e-01 9.742690e-02 -1.066540e-01 7.958222e-02 -8.864873e-02 -1.100503e-02 3.561132e-02 -7.152357e-01 -7.370323e-02 -8.499590e-02 -4.420353e-02 -4.164300e-02 -8.297033e-04 3.942309e-02 -7.655350e-03 2.626252e-02 -2.959665e-02 -5.360121e-05 -2.073010e-02 -2.018960e-02 3.390924e-02
<VARIANCE> 39
 5.986448e+00 1.676577e+00 1.452346e+00 7.714849e-01 5.951787e-01 5.769700e-01 4.098158e-01 2.981893e-01 2.720990e-01 2.203726e-01 1.663761e-01 1.396274e-01 1.588636e+01 9.392681e-01 2.063630e-01 9.639046e-02 6.198175e-02 4.772922e-02 5.301168e-02 3.215737e-02 3.423306e-02 2.839131e-02 2.508107e-02 1.629350e-02 1.426543e-02 3.463650e+00 1.236396e-01 2.381763e-02 1.461893e-02 1.045604e-02 9.315463e-03 9.004635e-03 5.914805e-03 4.949598e-03 4.575055e-03 3.835164e-03 3.112329e-03 2.477596e-03 3.323048e-01
<GCONST> -2.507244e+01
<MIXTURE> 11 7.427342e-02
<MEAN> 39
 4.648489e-01 1.295474e+00 2.981641e+00 4.223664e-01 -1.890000e+00 -1.672462e+00 -5.641437e-01 9.025589e-01 -4.482590e-01 -2.352840e-01 7.305858e-02 8.120017e-03 7.427161e+01 -2.748889e-02 4.225101e-02 1.043927e-02 1.836110e-02 4.514458e-03 1.417351e-02 1.072870e-02 -2.873413e-02 -5.537241e-03 5.570227e-03 2.050040e-02 -4.001791e-03 -2.119569e-01 -1.030736e-01 3.171688e-02 -8.269767e-02 6.644904e-03 9.092910e-02 3.389878e-02 1.464440e-02 -2.676999e-02 2.863900e-02 1.244269e-02 -6.337539e-03 -1.380243e-02 -2.215988e-01
<VARIANCE> 39
 8.811715e-01 9.863819e-01 6.451403e-01 4.320546e-01 2.635865e-01 3.224163e-01 2.987888e-01 3.383726e-01 2.192367e-01 2.463139e-01 1.205748e-01 1.198095e-01 5.692780e+00 1.087373e-01 7.277973e-02 6.566036e-02 2.810728e-02 4.307372e-02 2.524182e-02 1.824704e-02 1.994159e-02 2.204498e-02 1.218433e-02 9.989945e-03 9.091485e-03 5.771469e-01 4.137978e-02 1.048962e-02 8.256410e-03 5.183426e-03 6.231917e-03 5.319490e-03 4.030091e-03 3.478289e-03 3.227307e-03 2.611896e-03 1.743793e-03 1.787145e-03 1.178904e-01
<GCONST> -4.966138e+01
<MIXTURE> 12 6.894730e-02
<MEAN> 39
 8.161344e-01 1.427424e+00 1.447315e+00 3.157819e-01 -6.754594e-01 -1.383993e+00 -5.699536e-01 6.839566e-01 8.889063e-02 6.419213e-02 -6.459140e-02 -2.893340e-01 7.242709e+01 1.337240e+00 -1.307837e-01 1.410910e-01 -1.394951e-01 -2.679659e-01 -1.474930e-01 -1.547557e-01 8.788726e-02 -7.581972e-02 6.534727e-02 1.798391e-02 -3.183990e-02 1.516556e+00 -4.007294e-01 -1.095589e-01 -8.713972e-02 -5.649428e-02 7.362192e-03 4.926241e-02 3.585562e-02 -1.562899e-02 1.147590e-02 -1.487950e-02 1.505768e-02 1.446195e-02 8.099496e-03
<VARIANCE> 39
 2.684133e+00 1.330120e+00 1.400198e+00 6.160952e-01 4.853425e-01 4.217666e-01 3.076842e-01 3.078414e-01 2.568810e-01 2.179640e-01 1.326598e-01 1.511954e-01 1.106296e+01 5.236084e-01 1.503618e-01 1.046265e-01 6.318994e-02 4.882616e-02 4.603932e-02 3.082849e-02 3.118402e-02 2.493383e-02 2.360866e-02 1.675428e-02 1.618345e-02 1.475861e+00 8.579976e-02 2.075397e-02 1.563849e-02 8.207938e-03 8.466908e-03 6.637714e-03 4.827855e-03 4.380648e-03 4.625278e-03 3.371340e-03 2.323735e-03 2.500376e-03 2.644508e-01
<GCONST> -3.169253e+01
<MIXTURE> 13 9.940743e-02
<MEAN> 39
 -8.622340e+00 1.466857e+00 1.029686e+00 3.000144e-01 3.051983e-01 -6.859856e-01 3.199692e-02 5.697681e-01 5.263945e-01 -4.378656e-01 -1.118942e-01 -8.279660e-02 7.416386e+01 -3.099038e-01 -1.084309e-01 -8.571764e-02 -2.946632e-02 -1.824820e-02 4.881548e-03 -8.044565e-03 3.662283e-03 7.218909e-03 -4.990857e-03 -1.157080e-02 -1.156041e-02 -2.410781e-01 5.096009e-01 -3.161139e-02 5.789567e-03 -1.490086e-02 -4.972775e-02 -2.300426e-02 -2.355780e-02 -6.261239e-03 -2.243043e-02 3.296003e-02 8.143315e-03 -6.227824e-03 -3.963693e-01
<VARIANCE> 39
 4.663976e+00 2.555484e+00 1.675726e+00 7.906717e-01 5.798806e-01 3.730686e-01 3.033034e-01 2.191605e-01 1.810295e-01 1.500611e-01 1.347260e-01 1.101639e-01 1.031067e+01 1.143568e+00 1.205855e-01 8.079026e-02 5.077052e-02 4.085803e-02 3.679631e-02 2.325491e-02 1.923275e-02 1.657541e-02 1.572268e-02 1.221031e-02 1.061911e-02 1.690169e+00 9.084915e-02 2.301654e-02 1.364243e-02 9.792376e-03 7.673493e-03 5.775182e-03 4.430162e-03 3.703352e-03 3.433953e-03 3.134223e-03 2.469390e-03 2.141887e-03 2.478706e-01
<GCONST> -3.477327e+01
<MIXTURE> 14 3.572062e-02
<MEAN> 39
 -2.693999e+00 2.309996e+00 8.762951e-01 5.895370e-01 3.788092e-01 3.365615e-02 -1.026554e-01 -1.838392e-01 -4.783551e-02 -1.361731e-01 -6.159943e-02 -1.065499e-01 5.695846e+01 1.045147e-01 -8.128788e-02 -7.900556e-02 1.901050e-03 -4.181509e-03 5.078594e-02 3.274908e-02 -2.954677e-02 -2.823300e-02 3.256619e-03 -8.487592e-03 -1.023150e-02 -1.070822e+00 -1.362086e-01 -1.643381e-01 -4.855739e-02 -6.204230e-02 -6.597155e-02 -9.571573e-02 -1.140561e-02 5.152960e-02 3.567630e-02 -1.717124e-03 9.647164e-03 1.690863e-03 1.399180e+00
<VARIANCE> 39
 1.355001e+00 4.105671e-01 2.880901e-01 2.147112e-01 1.675271e-01 1.500183e-01 1.309170e-01 1.104877e-01 1.066593e-01 8.669097e-02 7.999445e-02 7.361057e-02 4.284329e+00 3.719061e-01 1.054776e-01 5.467745e-02 4.033915e-02 2.788727e-02 2.712384e-02 1.648951e-02 1.598315e-02 1.500707e-02 1.111345e-02 1.007353e-02 8.894237e-03 2.046078e+00 6.777084e-02 2.105228e-02 1.424846e-02 9.160960e-03 6.823269e-03 6.627379e-03 3.539603e-03 3.746402e-03 3.317682e-03 2.588546e-03 2.116040e-03 1.958786e-03 6.107357e-01
<GCONST> -5.134433e+01
<MIXTURE> 15 3.198236e-02
<MEAN> 39
 -3.818020e+00 -2.956456e-02 2.486226e-01 3.715538e-01 -8.054264e-03 -6.119921e-01 9.174466e-03 3.024845e-01 2.637462e-01 -2.723383e-01 -2.482157e-02 -1.587776e-01 6.898383e+01 -7.745380e-01 -6.393145e-01 -3.080847e-01 -2.331733e-01 -2.139804e-01 -2.479908e-01 -2.841022e-02 1.208093e-01 1.237960e-01 -2.148134e-02 4.322165e-02 3.229131e-02 3.996511e+00 1.375782e-01 1.691128e-01 9.697746e-02 -5.242622e-03 -2.595453e-02 -1.121774e-02 -2.533654e-02 -1.113633e-03 -1.407527e-02 3.441879e-02 6.754937e-03 3.367762e-03 -1.093417e-01
<VARIANCE> 39
 4.733522e+00 1.834070e+00 1.791885e+00 9.846552e-01 6.059670e-01 4.691773e-01 2.623359e-01 2.076915e-01 1.589973e-01 1.410032e-01 1.052771e-01 8.704711e-02 2.744945e+01 8.426891e-01 1.551658e-01 1.497439e-01 9.443988e-02 6.006476e-02 5.011979e-02 2.959098e-02 2.511327e-02 2.096730e-02 2.227377e-02 1.562208e-02 1.450966e-02 3.671862e+00 1.499143e-01 3.295518e-02 2.377135e-02 1.649115e-02 1.273597e-02 1.076414e-02 5.454564e-03 4.458452e-03 4.700315e-03 3.504672e-03 2.622480e-03 2.419470e-03 4.873010e-01
<GCONST> -2.537720e+01
<MIXTURE> 16 2.024080e-02
<MEAN> 39
 -2.521721e+00 2.084496e+00 8.026227e-01 6.167802e-01 3.454996e-01 4.759032e-02 -4.357128e-02 -1.853634e-01 -5.561488e-02 -1.618847e-01 -5.368359e-02 -1.076544e-01 5.616908e+01 -5.484399e-01 -8.136442e-01 -3.977649e-01 -2.933500e-01 -2.691840e-01 -3.068500e-01 -3.072357e-02 1.242742e-01 1.111847e-01 -2.930186e-02 2.693409e-02 1.800754e-02 4.635911e+00 -1.155933e-01 -8.624707e-02 -2.786207e-02 -6.037280e-02 -6.184063e-02 -9.193324e-02 -2.255195e-02 4.813106e-02 3.710850e-02 1.172221e-02 1.400062e-02 1.141099e-02 1.535165e+00
<VARIANCE> 39
 5.411465e-01 3.336383e-01 2.328346e-01 1.873205e-01 1.385713e-01 1.249088e-01 1.206754e-01 1.071086e-01 9.600992e-02 8.621705e-02 8.085404e-02 7.913923e-02 3.246670e+00 2.992879e-01 1.085605e-01 9.160494e-02 6.632394e-02 3.673795e-02 3.564453e-02 2.627990e-02 2.024394e-02 1.813077e-02 1.648784e-02 1.312596e-02 1.290400e-02 2.374865e+00 1.103905e-01 2.004114e-02 1.401049e-02 8.524524e-03 5.664796e-03 5.815506e-03 3.604081e-03 3.629320e-03 3.036887e-03 3.070308e-03 2.337023e-03 2.095706e-03 4.053349e-01
<GCONST> -5.030543e+01
<STATE> 4
<NUMMIXES> 16
<MIXTURE> 1 8.035529e-02
<MEAN> 39
 1.772266e+00 -8.876459e-02 6.967270e-01 -3.022682e-03 -6.520996e-01 -1.222725e+00 -1.657597e-01 1.327073e+00 2.163904e-01 3.314543e-01 -2.768322e-01 -3.957469e-01 7.374416e+01 -3.443416e-02 4.371167e-02 3.659438e-02 4.708376e-02 -1.190940e-02 -2.029910e-02 9.654925e-03 9.096578e-03 -1.984287e-02 -2.090917e-03 6.521813e-03 1.676642e-02 -2.235099e-01 -2.736804e-02 5.191477e-02 1.647586e-02 -4.970262e-03 3.643130e-03 1.075683e-02 -2.605126e-03 -2.123627e-02 -1.347510e-02 2.367940e-03 1.969482e-02 5.171836e-03 -1.082202e-01
<VARIANCE> 39
 8.990595e-01 6.050974e-01 7.184107e-01 6.223350e-01 3.813128e-01 6.149808e-01 3.273857e-01 3.080172e-01 1.555744e-01 2.153811e-01 1.558017e-01 1.369231e-01 6.935200e+00 4.140049e-02 3.538793e-02 4.120522e-02 2.913908e-02 2.239412e-02 2.914677e-02 1.530923e-02 1.934232e-02 1.141699e-02 9.622597e-03 1.142338e-02 1.001053e-02 1.588578e-01 5.879403e-03 5.310468e-03 4.138022e-03 4.171862e-03 3.203521e-03 3.643454e-03 2.459651e-03 2.955772e-03 2.025507e-03 1.623685e-03 1.811000e-03 1.493793e-03 2.781737e-02
<GCONST> -6.108880e+01
<MIXTURE> 2 7.557680e-02
<MEAN> 39
 -5.289093e+00 1.671064e-01 5.167336e-01 -2.133846e-02 -1.331705e-01 -6.369017e-01 -9.164234e-02 5.089542e-01 5.338727e-01 -1.837614e-01 -8.086916e-02 -1.564460e-01 6.825066e+01 1.082329e+00 1.273553e-01 8.716027e-02 1.023153e-01 2.782203e-02 4.252369e-02 1.425543e-02 6.880628e-03 -8.406694e-02 1.027749e-01 -2.511206e-02 -3.047526e-02 -1.747244e+00 2.654232e-01 1.458649e-01 4.531657e-02 1.148190e-02 7.781297e-03 2.907702e-03 -4.917250e-03 8.047512e-05 -4.504869e-02 1.727981e-02 4.806403e-03 -1.826347e-03 -1.799036e-02
<VARIANCE> 39
 5.256368e+00 1.737854e+00 1.317189e+00 9.025744e-01 4.237537e-01 4.851827e-01 2.983632e-01 2.658274e-01 2.180816e-01 1.967975e-01 1.712265e-01 1.327025e-01 1.731889e+01 6.837562e-01 1.752171e-01 1.268402e-01 7.412780e-02 4.382247e-02 4.030992e-02 2.657553e-02 3.167944e-02 2.153860e-02 1.998303e-02 1.596361e-02 1.425750e-02 1.658659e+00 1.052959e-01 2.122880e-02 1.815798e-02 1.197729e-02 8.428156e-03 7.301017e-03 5.144293e-03 4.683766e-03 4.373674e-03 3.668730e-03 3.232502e-03 2.628672e-03 5.380867e-01
<GCONST> -2.817674e+01
<MIXTURE> 3 9.529715e-02
<MEAN> 39
 1.181454e+00 2.983111e+00 1.211608e+00 -6.982616e-02 -9.963021e-02 -5.162539e-01 -1.961060e-01 3.038507e-01 -5.873178e-01 6.432330e-01 1.089535e-02 -3.058029e-01 6.680974e+01 -1.121433e-01 4.903910e-02 2.179057e-02 2.293960e-02 4.921772e-02 1.927842e-02 4.705628e-03 -3.493602e-02 3.532055e-02 -5.746413e-03 -1.195317e-02 1.114048e-02 -2.670333e-01 -1.094227e-01 -1.095073e-01 -1.238656e-02 -5.160564e-05 -2.653168e-02 -6.791003e-03 7.838228e-03 4.371927e-02 5.012131e-02 -3.416787e-02 -3.872045e-03 1.012849e-04 2.193730e-01
<VARIANCE> 39
 6.299496e-01 5.958987e-01 3.134252e-01 3.176824e-01 3.522925e-01 2.536545e-01 2.316042e-01 1.883007e-01 2.305090e-01 2.063516e-01 2.259475e-01 1.298787e-01 7.109298e+00 1.238072e-01 1.055756e-01 4.097515e-02 3.280418e-02 3.255072e-02 2.762424e-02 1.933294e-02 3.051410e-02 3.047944e-02 2.194514e-02 1.452550e-02 1.027633e-02 8.594517e-01 3.149439e-02 1.389383e-02 7.542492e-03 5.242148e-03 5.445608e-03 4.319908e-03 3.418209e-03 4.017922e-03 3.866318e-03 3.605693e-03 3.072272e-03 2.127532e-03 1.049542e-01
<GCONST> -4.853850e+01
<MIXTURE> 4 5.703294e-02
<MEAN> 39
 1.007474e+00 7.950759e-01 1.430347e+00 2.887322e-01 -6.767429e-01 -1.619172e+00 -4.420878e-01 1.311492e+00 9.980471e-02 4.031478e-01 -1.971161e-01 -2.492853e-01 7.153303e+01 -3.017980e-01 2.510857e-01 3.567754e-02 5.429363e-02 7.132187e-02 9.025159e-02 5.246427e-02 -1.238770e-01 -1.745843e-03 -4.436559e-02 4.694264e-02 3.223975e-02 -7.358617e-01 -2.201281e-01 9.786482e-02 -1.710839e-02 -1.621952e-02 4.105534e-02 8.482783e-02 3.104772e-02 -7.489847e-02 -2.749873e-03 -2.817225e-02 2.223305e-02 4.576962e-03 -2.365019e-01
<VARIANCE> 39
 1.048302e+00 9.092719e-01 5.788755e-01 5.341641e-01 4.208131e-01 3.553358e-01 3.906386e-01 3.559687e-01 1.708027e-01 2.396865e-01 1.636778e-01 1.691115e-01 8.306489e+00 2.933948e-01 1.115464e-01 8.738016e-02 4.919797e-02 4.976385e-02 4.108868e-02 2.953417e-02 3.977831e-02 3.161079e-02 2.421666e-02 1.795912e-02 1.605509e-02 1.077407e+00 6.149328e-02 1.434381e-02 8.197768e-03 7.565710e-03 5.848020e-03 5.672860e-03 4.894665e-03 5.050473e-03 4.256424e-03 4.640013e-03 3.101151e-03 2.634592e-03 1.547655e-01
<GCONST> -3.719926e+01
<MIXTURE> 5 6.299619e-02
<MEAN> 39
 -5.236933e+00 2.575830e+00 1.875230e+00 1.372970e-01 3.086224e-01 -7.229654e-01 -2.438554e-01 4.099536e-01 5.684419e-01 -2.618348e-01 1.094682e-01 -3.740861e-02 7.131995e+01 -1.123741e+00 -1.988816e-02 -9.745520e-02 -4.143454e-03 1.100557e-01 8.748792e-02 3.111101e-02 -1.613390e-02 5.379000e-02 -9.748713e-02 -2.836480e-02 -4.506944e-03 4.042708e-01 3.256329e-01 -1.105644e-01 -5.876026e-02 -2.097191e-02 -6.646896e-02 -2.576360e-02 -9.047568e-03 3.844601e-02 -5.616331e-02 4.478502e-02 -1.553793e-02 -1.825559e-02 -1.443610e-01
<VARIANCE> 39
 8.360273e+00 2.190062e+00 1.302776e+00 9.374757e-01 5.878809e-01 5.263720e-01 3.908563e-01 2.752946e-01 2.200535e-01 1.757434e-01 1.486885e-01 1.221725e-01 9.931085e+00 1.375630e+00 1.945981e-01 8.428955e-02 5.838660e-02 6.447995e-02 5.788374e-02 2.862889e-02 3.259327e-02 2.447156e-02 2.446822e-02 1.467787e-02 1.413089e-02 1.453783e+00 1.504385e-01 2.593634e-02 1.317673e-02 1.053999e-02 9.278907e-03 8.885860e-03 5.728575e-03 5.382213e-03 4.014764e-03 3.695436e-03 2.936199e-03 2.566864e-03 1.761529e-01
<GCONST> -2.717895e+01
<MIXTURE> 6 7.113247e-02
<MEAN> 39
 2.529048e+00 1.916248e+00 1.898842e-01 -1.358057e+00 -9.036640e-01 -1.173641e-01 9.268650e-02 4.610695e-01 -2.613020e-01 1.759915e-01 4.150188e-01 -3.135092e-01 7.067866e+01 -3.330909e-02 5.842533e-02 1.956259e-02 -6.037626e-03 2.430508e-02 1.205150e-02 4.523063e-03 2.928351e-04 -1.384461e-02 -1.155406e-03 -4.370145e-03 4.911707e-03 -2.285350e-01 -4.817843e-02 -1.750322e-02 1.963423e-02 4.509388e-02 2.182551e-02 -2.441874e-02 -1.398217e-02 1.723869e-03 8.224547e-03 9.280045e-03 -1.195808e-02 -2.255605e-03 -1.192481e-02
<VARIANCE> 39
 7.417114e-01 1.330101e+00 3.473136e-01 8.038674e-01 5.026754e-01 3.077849e-01 2.612667e-01 2.279177e-01 2.463083e-01 2.421240e-01 1.882976e-01 1.508010e-01 1.059576e+01 3.707733e-02 6.663044e-02 2.429804e-02 3.387829e-02 2.267001e-02 1.996941e-02 1.508653e-02 1.425892e-02 1.460851e-02 1.257504e-02 1.172349e-02 9.644130e-03 3.875034e-01 7.752196e-03 7.829214e-03 4.350967e-03 4.514249e-03 3.850562e-03 3.454598e-03 2.469442e-03 2.827211e-03 2.343805e-03 1.948627e-03 2.104553e-03 1.629698e-03 4.852215e-02
<GCONST> -5.776066e+01
<MIXTURE> 7 5.945842e-02
<MEAN> 39
 1.686661e+00 2.557515e-01 4.975407e-01 -4.765930e-01 -4.189587e-01 -9.050333e-01 -3.919370e-01 1.143681e+00 2.043768e-01 5.179432e-01 -5.920000e-02 -6.611246e-01 7.381733e+01 4.548409e-02 -1.576392e-01 -8.042546e-03 6.383041e-03 -2.724677e-02 -2.119228e-02 1.433711e-02 7.696588e-02 1.536368e-02 8.752924e-03 -4.364763e-02 -1.566128e-02 1.811461e-01 -1.616456e-01 1.164965e-01 3.699699e-02 3.842574e-02 1.110830e-02 9.096788e-03 3.102707e-02 -4.873168e-02 -2.155480e-02 -3.067054e-02 8.857080e-03 4.231479e-02 -4.047576e-01
<VARIANCE> 39
 7.930880e-01 9.957390e-01 5.326293e-01 5.796057e-01 3.219828e-01 4.848529e-01 2.703940e-01 3.209709e-01 1.898267e-01 2.133292e-01 1.892244e-01 1.237736e-01 7.205040e+00 1.309910e-01 1.133193e-01 5.685419e-02 5.756106e-02 3.425338e-02 4.601295e-02 2.284511e-02 4.157000e-02 2.225530e-02 1.566200e-02 2.204828e-02 1.393299e-02 7.778971e-01 4.102839e-02 1.449166e-02 7.274600e-03 6.831344e-03 5.645953e-03 5.454520e-03 3.821574e-03 5.227360e-03 3.994677e-03 3.429051e-03 2.751119e-03 2.075340e-03 1.023934e-01
<GCONST> -4.276391e+01
<MIXTURE> 8 4.852062e-02
<MEAN> 39
 -2.001949e+00 2.555762e+00 1.027667e+00 5.595816e-01 2.374391e-01 -1.290462e-01 -1.518058e-01 -1.365659e-01 -6.374885e-02 -7.469870e-02 1.199786e-02 -6.906593e-02 5.881710e+01 -1.972470e-01 2.006899e-03 -4.283277e-02 7.087606e-02 9.249786e-02 1.172308e-01 3.396964e-02 -5.335604e-02 -1.225626e-02 -4.034049e-02 -3.737647e-02 -3.464015e-03 -1.206651e+00 -6.411714e-02 -1.802885e-01 -3.883755e-02 -7.504808e-02 -6.627096e-02 -7.748351e-02 -3.413312e-03 6.492344e-02 1.932164e-02 5.257926e-03 4.701233e-03 -1.151641e-02 1.069715e+00
<VARIANCE> 39
 3.056426e+00 7.016498e-01 4.095862e-01 2.876514e-01 2.105096e-01 2.014461e-01 1.549475e-01 1.314949e-01 1.248226e-01 1.237324e-01 9.893917e-02 8.495858e-02 9.141442e+00 5.017989e-01 1.074764e-01 6.314840e-02 5.222756e-02 3.690211e-02 3.963946e-02 2.164344e-02 2.220813e-02 1.863101e-02 1.761816e-02 1.283414e-02 1.090768e-02 1.733939e+00 6.789505e-02 2.571723e-02 1.298924e-02 8.930481e-03 6.327841e-03 6.613334e-03 3.967073e-03 4.090134e-03 3.610750e-03 3.350084e-03 2.404628e-03 2.117587e-03 4.640887e-01
<GCONST> -4.343723e+01
<MIXTURE> 9 9.525375e-02
<MEAN> 39
 -1.664636e+00 1.596550e+00 9.157891e-01 3.158632e-01 7.431597e-02 -3.949820e-01 1.305234e-01 4.991915e-01 1.335444e-01 9.785989e-02 -6.154522e-02 -2.287516e-01 6.550231e+01 8.758079e-02 8.925378e-02 4.309864e-02 1.793414e-02 1.781616e-02 1.330743e-02 -1.220410e-02 -6.811876e-03 8.922384e-03 -2.381146e-02 8.877200e-03 2.504798e-03 1.866762e-01 -6.771968e-02 -5.435478e-02 -1.999033e-02 -5.772856e-02 -4.900751e-02 -4.066478e-02 -3.046864e-02 1.011152e-02 -3.466929e-03 -3.633849e-03 9.347562e-03 2.473415e-03 5.279558e-01
<VARIANCE> 39
 4.295403e+00 2.126748e+00 1.065449e+00 7.416306e-01 4.366995e-01 5.191146e-01 3.468056e-01 2.963540e-01 2.218774e-01 2.153979e-01 1.825863e-01 1.506543e-01 1.405507e+01 1.853773e+00 2.484216e-01 1.058740e-01 8.632831e-02 6.526610e-02 5.911231e-02 3.172032e-02 3.554899e-02 4.041783e-02 3.768798e-02 1.935582e-02 1.543873e-02 2.590632e+00 8.037819e-02 2.440598e-02 1.201330e-02 9.332580e-03 7.814044e-03 6.533541e-03 4.711815e-03 4.626025e-03 3.812285e-03 3.704984e-03 3.027180e-03 2.627838e-03 2.503614e-01
<GCONST> -2.580358e+01
<MIXTURE> 10 8.456723e-02
<MEAN> 39
 -9.230114e+00 1.884743e+00 7.544070e-01 -3.671412e-01 4.977914e-01 -5.455981e-01 -1.461145e-01 6.039765e-01 4.501561e-01 -4.475129e-01 -8.132713e-02 -1.524784e-01 7.174014e+01 -1.831556e-02 -1.046748e-01 -3.129397e-02 -4.112881e-02 -5.123172e-02 -4.794477e-03 -2.190846e-02 -3.343061e-03 -1.012266e-03 3.042217e-03 -6.194321e-04 -9.154484e-03 -3.386657e-01 3.852312e-01 -2.526509e-02 2.602163e-02 1.304447e-02 -2.794472e-02 -6.592534e-03 -1.244056e-03 -5.969651e-03 -3.691335e-03 2.477465e-02 4.794065e-03 1.257487e-03 -3.092794e-01
<VARIANCE> 39
